<?xml version="1.0"?>
<opencv_storage>
<cascade>
  <stageType>BOOST</stageType>
  <featureType>HAAR</featureType>
  <height>24</height>
  <width>24</width>
  <stageParams>
    <boostType>GAB</boostType>
    <minHitRate>9.9500000476837158e-01</minHitRate>
    <maxFalseAlarm>5.0000000000000000e-01</maxFalseAlarm>
    <weightTrimRate>9.4999999999999996e-01</weightTrimRate>
    <maxDepth>1</maxDepth>
    <maxWeakCount>100</maxWeakCount></stageParams>
  <featureParams>
    <maxCatCount>0</maxCatCount>
    <featSize>1</featSize>
    <mode>BASIC</mode></featureParams>
  <stageNum>20</stageNum>
  <stages>
    <!-- stage 0 -->
    <_>
      <maxWeakCount>2</maxWeakCount>
      <stageThreshold>-1.0893622040748596e-01</stageThreshold>
      <weakClassifiers>
        <_>
          <internalNodes>
            0 -1 74 2.1769856102764606e-03</internalNodes>
          <leafValues>
            -9.6008402109146118e-01 8.7213742733001709e-01</leafValues></_>
        <_>
          <internalNodes>
            0 -1 104 5.0837234593927860e-03</internalNodes>
          <leafValues>
            -8.4862166643142700e-01 8.5114783048629761e-01</leafValues></_></weakClassifiers></_>
    <!-- stage 1 -->
    <_>
      <maxWeakCount>1</maxWeakCount>
      <stageThreshold>6.9152539968490601e-01</stageThreshold>
      <weakClassifiers>
        <_>
          <internalNodes>
            0 -1 151 -2.8725260496139526e-01</internalNodes>
          <leafValues>
            -9.9512195587158203e-01 6.9152539968490601e-01</leafValues></_></weakClassifiers></_>
    <!-- stage 2 -->
    <_>
      <maxWeakCount>4</maxWeakCount>
      <stageThreshold>-8.9598900079727173e-01</stageThreshold>
      <weakClassifiers>
        <_>
          <internalNodes>
            0 -1 146 -1.1329557746648788e-03</internalNodes>
          <leafValues>
            6.8313455581665039e-01 -9.7094428539276123e-01</leafValues></_>
        <_>
          <internalNodes>
            0 -1 22 1.0920725762844086e-02</internalNodes>
          <leafValues>
            -7.5292539596557617e-01 5.0876539945602417e-01</leafValues></_>
        <_>
          <internalNodes>
            0 -1 57 1.6129687428474426e-03</internalNodes>
          <leafValues>
            -8.5909014940261841e-01 3.6916688084602356e-01</leafValues></_>
        <_>
          <internalNodes>
            0 -1 162 -4.5459839748218656e-04</internalNodes>
          <leafValues>
            4.5871382951736450e-01 -6.7583781480789185e-01</leafValues></_></weakClassifiers></_>
    <!-- stage 3 -->
    <_>
      <maxWeakCount>5</maxWeakCount>
      <stageThreshold>-1.7133604288101196e+00</stageThreshold>
      <weakClassifiers>
        <_>
          <internalNodes>
            0 -1 61 -3.4232102334499359e-02</internalNodes>
          <leafValues>
            7.0594370365142822e-01 -6.5033620595932007e-01</leafValues></_>
        <_>
          <internalNodes>
            0 -1 73 1.3898157048970461e-03</internalNodes>
          <leafValues>
            -8.4167611598968506e-01 4.8892045021057129e-01</leafValues></_>
        <_>
          <internalNodes>
            0 -1 100 7.4510183185338974e-03</internalNodes>
          <leafValues>
            -9.8473227024078369e-01 2.7301058173179626e-01</leafValues></_>
        <_>
          <internalNodes>
            0 -1 108 4.6399462735280395e-04</internalNodes>
          <leafValues>
            -9.4117915630340576e-01 3.0815717577934265e-01</leafValues></_>
        <_>
          <internalNodes>
            0 -1 147 -6.4828043105080724e-04</internalNodes>
          <leafValues>
            2.3684822022914886e-01 -9.0945941209793091e-01</leafValues></_></weakClassifiers></_>
    <!-- stage 4 -->
    <_>
      <maxWeakCount>7</maxWeakCount>
      <stageThreshold>-1.3717210292816162e+00</stageThreshold>
      <weakClassifiers>
        <_>
          <internalNodes>
            0 -1 147 -8.5117662092670798e-04</internalNodes>
          <leafValues>
            3.5724332928657532e-01 -8.7889271974563599e-01</leafValues></_>
        <_>
          <internalNodes>
            0 -1 94 1.3935131020843983e-02</internalNodes>
          <leafValues>
            -5.1564311981201172e-01 5.8837789297103882e-01</leafValues></_>
        <_>
          <internalNodes>
            0 -1 140 2.2187485592439771e-04</internalNodes>
          <leafValues>
            -1. 2.6896035671234131e-01</leafValues></_>
        <_>
          <internalNodes>
            0 -1 74 2.0301081240177155e-03</internalNodes>
          <leafValues>
            -8.9049696922302246e-01 2.3438943922519684e-01</leafValues></_>
        <_>
          <internalNodes>
            0 -1 144 -3.4749077167361975e-04</internalNodes>
          <leafValues>
            1.9708223640918732e-01 -9.5447397232055664e-01</leafValues></_>
        <_>
          <internalNodes>
            0 -1 116 3.2865547109395266e-04</internalNodes>
          <leafValues>
            -8.0227643251419067e-01 2.6799672842025757e-01</leafValues></_>
        <_>
          <internalNodes>
            0 -1 110 4.8656154831405729e-05</internalNodes>
          <leafValues>
            1.7927248775959015e-01 -8.2789647579193115e-01</leafValues></_></weakClassifiers></_>
    <!-- stage 5 -->
    <_>
      <maxWeakCount>7</maxWeakCount>
      <stageThreshold>-1.4424235820770264e+00</stageThreshold>
      <weakClassifiers>
        <_>
          <internalNodes>
            0 -1 55 -1.0735756717622280e-02</internalNodes>
          <leafValues>
            5.7563853263854980e-01 -5.9674131870269775e-01</leafValues></_>
        <_>
          <internalNodes>
            0 -1 107 8.5716985631734133e-04</internalNodes>
          <leafValues>
            -9.3422067165374756e-01 3.0416911840438843e-01</leafValues></_>
        <_>
          <internalNodes>
            0 -1 78 4.8401014646515250e-04</internalNodes>
          <leafValues>
            -9.4314134120941162e-01 1.4500616490840912e-01</leafValues></_>
        <_>
          <internalNodes>
            0 -1 141 1.8927875498775393e-04</internalNodes>
          <leafValues>
            1.6561116278171539e-01 -9.5488089323043823e-01</leafValues></_>
        <_>
          <internalNodes>
            0 -1 76 4.9338806420564651e-03</internalNodes>
          <leafValues>
            -7.5153344869613647e-01 2.6611268520355225e-01</leafValues></_>
        <_>
          <internalNodes>
            0 -1 145 -4.1723229514900595e-05</internalNodes>
          <leafValues>
            2.6728370785713196e-01 -7.2639060020446777e-01</leafValues></_>
        <_>
          <internalNodes>
            0 -1 160 -4.8099213745445013e-04</internalNodes>
          <leafValues>
            2.3819901049137115e-01 -7.2056829929351807e-01</leafValues></_></weakClassifiers></_>
    <!-- stage 6 -->
    <_>
      <maxWeakCount>6</maxWeakCount>
      <stageThreshold>-8.3024156093597412e-01</stageThreshold>
      <weakClassifiers>
        <_>
          <internalNodes>
            0 -1 34 5.3470833227038383e-03</internalNodes>
          <leafValues>
            -6.4721846580505371e-01 3.7767219543457031e-01</leafValues></_>
        <_>
          <internalNodes>
            0 -1 112 -1.4613473787903786e-02</internalNodes>
          <leafValues>
            2.1784821152687073e-01 -8.6664807796478271e-01</leafValues></_>
        <_>
          <internalNodes>
            0 -1 150 3.1160903163254261e-03</internalNodes>
          <leafValues>
            -6.8959951400756836e-01 2.5666743516921997e-01</leafValues></_>
        <_>
          <internalNodes>
            0 -1 137 -1.3890353147871792e-04</internalNodes>
          <leafValues>
            2.0322489738464355e-01 -9.5188158750534058e-01</leafValues></_>
        <_>
          <internalNodes>
            0 -1 142 2.3922194668557495e-04</internalNodes>
          <leafValues>
            -9.9331605434417725e-01 1.1790421605110168e-01</leafValues></_>
        <_>
          <internalNodes>
            0 -1 74 1.8775754142552614e-03</internalNodes>
          <leafValues>
            -8.9450705051422119e-01 1.7643859982490540e-01</leafValues></_></weakClassifiers></_>
    <!-- stage 7 -->
    <_>
      <maxWeakCount>9</maxWeakCount>
      <stageThreshold>-1.4522957801818848e+00</stageThreshold>
      <weakClassifiers>
        <_>
          <internalNodes>
            0 -1 120 -6.4269709400832653e-04</internalNodes>
          <leafValues>
            2.6533332467079163e-01 -7.9600000381469727e-01</leafValues></_>
        <_>
          <internalNodes>
            0 -1 144 -3.9344708784483373e-04</internalNodes>
          <leafValues>
            1.4852011203765869e-01 -9.2805480957031250e-01</leafValues></_>
        <_>
          <internalNodes>
            0 -1 33 1.2934107799082994e-03</internalNodes>
          <leafValues>
            -8.5929977893829346e-01 1.6794613003730774e-01</leafValues></_>
        <_>
          <internalNodes>
            0 -1 110 -2.2338890630635433e-05</internalNodes>
          <leafValues>
            2.6275527477264404e-01 -7.6703369617462158e-01</leafValues></_>
        <_>
          <internalNodes>
            0 -1 8 6.7228637635707855e-02</internalNodes>
          <leafValues>
            -4.1812357306480408e-01 3.8538578152656555e-01</leafValues></_>
        <_>
          <internalNodes>
            0 -1 160 -2.8560808277688920e-04</internalNodes>
          <leafValues>
            2.5459674000740051e-01 -6.9768434762954712e-01</leafValues></_>
        <_>
          <internalNodes>
            0 -1 59 2.7268641861155629e-04</internalNodes>
          <leafValues>
            -8.8155817985534668e-01 1.1709837615489960e-01</leafValues></_>
        <_>
          <internalNodes>
            0 -1 164 -2.3575531668029726e-04</internalNodes>
          <leafValues>
            -8.2504302263259888e-01 1.3614077866077423e-01</leafValues></_>
        <_>
          <internalNodes>
            0 -1 88 1.6297809779644012e-02</internalNodes>
          <leafValues>
            -4.0449288487434387e-01 3.9314329624176025e-01</leafValues></_></weakClassifiers></_>
    <!-- stage 8 -->
    <_>
      <maxWeakCount>9</maxWeakCount>
      <stageThreshold>-1.4158148765563965e+00</stageThreshold>
      <weakClassifiers>
        <_>
          <internalNodes>
            0 -1 84 -1.3197017833590508e-02</internalNodes>
          <leafValues>
            5.6334233283996582e-01 -3.3227345347404480e-01</leafValues></_>
        <_>
          <internalNodes>
            0 -1 129 -7.9037167597562075e-04</internalNodes>
          <leafValues>
            2.0806285738945007e-01 -8.2631820440292358e-01</leafValues></_>
        <_>
          <internalNodes>
            0 -1 105 -7.0098042488098145e-03</internalNodes>
          <leafValues>
            -7.2252446413040161e-01 2.3912943899631500e-01</leafValues></_>
        <_>
          <internalNodes>
            0 -1 72 9.0458389604464173e-04</internalNodes>
          <leafValues>
            -5.9038668870925903e-01 2.9935213923454285e-01</leafValues></_>
        <_>
          <internalNodes>
            0 -1 142 4.7020288184285164e-04</internalNodes>
          <leafValues>
            -8.5502147674560547e-01 1.9251203536987305e-01</leafValues></_>
        <_>
          <internalNodes>
            0 -1 47 -7.2856590850278735e-04</internalNodes>
          <leafValues>
            3.6441665887832642e-01 -4.5832487940788269e-01</leafValues></_>
        <_>
          <internalNodes>
            0 -1 141 1.9435011199675500e-04</internalNodes>
          <leafValues>
            1.2240221351385117e-01 -9.5265328884124756e-01</leafValues></_>
        <_>
          <internalNodes>
            0 -1 110 1.4077284140512347e-04</internalNodes>
          <leafValues>
            1.0929019749164581e-01 -8.5347867012023926e-01</leafValues></_>
        <_>
          <internalNodes>
            0 -1 19 -1.0634644422680140e-03</internalNodes>
          <leafValues>
            -8.5010826587677002e-01 1.2815453112125397e-01</leafValues></_></weakClassifiers></_>
    <!-- stage 9 -->
    <_>
      <maxWeakCount>12</maxWeakCount>
      <stageThreshold>-1.0981243848800659e+00</stageThreshold>
      <weakClassifiers>
        <_>
          <internalNodes>
            0 -1 153 3.8495106855407357e-04</internalNodes>
          <leafValues>
            -6.7839193344116211e-01 2.8866714239120483e-01</leafValues></_>
        <_>
          <internalNodes>
            0 -1 145 -1.8825673032552004e-04</internalNodes>
          <leafValues>
            2.1791501343250275e-01 -7.3337876796722412e-01</leafValues></_>
        <_>
          <internalNodes>
            0 -1 108 5.5079523008316755e-04</internalNodes>
          <leafValues>
            -9.5929884910583496e-01 1.4042542874813080e-01</leafValues></_>
        <_>
          <internalNodes>
            0 -1 133 3.0281539075076580e-03</internalNodes>
          <leafValues>
            -9.4481247663497925e-01 9.6817217767238617e-02</leafValues></_>
        <_>
          <internalNodes>
            0 -1 118 -1.1110249906778336e-03</internalNodes>
          <leafValues>
            2.0099703967571259e-01 -5.7391488552093506e-01</leafValues></_>
        <_>
          <internalNodes>
            0 -1 109 -6.7923627793788910e-03</internalNodes>
          <leafValues>
            1.2923987209796906e-01 -8.3170574903488159e-01</leafValues></_>
        <_>
          <internalNodes>
            0 -1 114 -2.9134871438145638e-03</internalNodes>
          <leafValues>
            -6.9174897670745850e-01 1.3935407996177673e-01</leafValues></_>
        <_>
          <internalNodes>
            0 -1 45 -1.7558026313781738e-01</internalNodes>
          <leafValues>
            7.9186880588531494e-01 -1.7278005182743073e-01</leafValues></_>
        <_>
          <internalNodes>
            0 -1 18 1.1710888147354126e-01</internalNodes>
          <leafValues>
            -2.2053374350070953e-01 6.7173695564270020e-01</leafValues></_>
        <_>
          <internalNodes>
            0 -1 137 -1.3551658776123077e-04</internalNodes>
          <leafValues>
            2.1978932619094849e-01 -8.9559024572372437e-01</leafValues></_>
        <_>
          <internalNodes>
            0 -1 28 -8.2000223919749260e-03</internalNodes>
          <leafValues>
            6.0900604724884033e-01 -2.9076129198074341e-01</leafValues></_>
        <_>
          <internalNodes>
            0 -1 73 8.1713439431041479e-04</internalNodes>
          <leafValues>
            -8.8019526004791260e-01 2.2189381718635559e-01</leafValues></_></weakClassifiers></_>
    <!-- stage 10 -->
    <_>
      <maxWeakCount>11</maxWeakCount>
      <stageThreshold>-1.0910173654556274e+00</stageThreshold>
      <weakClassifiers>
        <_>
          <internalNodes>
            0 -1 25 1.9865981303155422e-03</internalNodes>
          <leafValues>
            -5.2879583835601807e-01 3.2686084508895874e-01</leafValues></_>
        <_>
          <internalNodes>
            0 -1 51 3.3777239732444286e-03</internalNodes>
          <leafValues>
            5.0988715887069702e-01 -3.1097355484962463e-01</leafValues></_>
        <_>
          <internalNodes>
            0 -1 43 7.7190445736050606e-03</internalNodes>
          <leafValues>
            -3.5242933034896851e-01 4.4157654047012329e-01</leafValues></_>
        <_>
          <internalNodes>
            0 -1 106 9.8405231256037951e-04</internalNodes>
          <leafValues>
            -8.6207598447799683e-01 1.4016158878803253e-01</leafValues></_>
        <_>
          <internalNodes>
            0 -1 116 1.9526720279827714e-04</internalNodes>
          <leafValues>
            -9.4486379623413086e-01 1.2441390752792358e-01</leafValues></_>
        <_>
          <internalNodes>
            0 -1 26 2.2401858586817980e-03</internalNodes>
          <leafValues>
            -3.1756970286369324e-01 3.9637765288352966e-01</leafValues></_>
        <_>
          <internalNodes>
            0 -1 96 -5.6073074229061604e-03</internalNodes>
          <leafValues>
            3.1803914904594421e-01 -4.5442697405815125e-01</leafValues></_>
        <_>
          <internalNodes>
            0 -1 52 1.1621441226452589e-03</internalNodes>
          <leafValues>
            -3.5550701618194580e-01 3.6361753940582275e-01</leafValues></_>
        <_>
          <internalNodes>
            0 -1 67 7.3597964365035295e-04</internalNodes>
          <leafValues>
            -5.2830392122268677e-01 1.9942364096641541e-01</leafValues></_>
        <_>
          <internalNodes>
            0 -1 110 -1.1216595303267241e-03</internalNodes>
          <leafValues>
            -6.7699432373046875e-01 1.5575546026229858e-01</leafValues></_>
        <_>
          <internalNodes>
            0 -1 74 2.1768230944871902e-03</internalNodes>
          <leafValues>
            -8.8330441713333130e-01 1.1173620074987411e-01</leafValues></_></weakClassifiers></_>
    <!-- stage 11 -->
    <_>
      <maxWeakCount>13</maxWeakCount>
      <stageThreshold>-1.1192499399185181e+00</stageThreshold>
      <weakClassifiers>
        <_>
          <internalNodes>
            0 -1 103 -8.7014434393495321e-04</internalNodes>
          <leafValues>
            3.1239670515060425e-01 -4.7848102450370789e-01</leafValues></_>
        <_>
          <internalNodes>
            0 -1 143 -9.1635374701581895e-05</internalNodes>
          <leafValues>
            -8.7481981515884399e-01 1.3102729618549347e-01</leafValues></_>
        <_>
          <internalNodes>
            0 -1 147 -8.3008198998868465e-04</internalNodes>
          <leafValues>
            1.5403255820274353e-01 -8.3123284578323364e-01</leafValues></_>
        <_>
          <internalNodes>
            0 -1 98 -1.9722111523151398e-02</internalNodes>
          <leafValues>
            1.1559608578681946e-01 -9.0293961763381958e-01</leafValues></_>
        <_>
          <internalNodes>
            0 -1 169 3.3558200811967254e-04</internalNodes>
          <leafValues>
            -3.3622720837593079e-01 3.3304083347320557e-01</leafValues></_>
        <_>
          <internalNodes>
            0 -1 11 -4.0427345084026456e-04</internalNodes>
          <leafValues>
            -5.0661700963973999e-01 2.3256802558898926e-01</leafValues></_>
        <_>
          <internalNodes>
            0 -1 49 -1.0448019020259380e-03</internalNodes>
          <leafValues>
            5.5656260251998901e-01 -2.1550586819648743e-01</leafValues></_>
        <_>
          <internalNodes>
            0 -1 91 3.0648640822619200e-03</internalNodes>
          <leafValues>
            -2.7065628767013550e-01 4.0447306632995605e-01</leafValues></_>
        <_>
          <internalNodes>
            0 -1 74 2.0653915125876665e-03</internalNodes>
          <leafValues>
            -9.9143236875534058e-01 1.1436044424772263e-01</leafValues></_>
        <_>
          <internalNodes>
            0 -1 81 6.8667042069137096e-04</internalNodes>
          <leafValues>
            -8.2233279943466187e-01 7.8911058604717255e-02</leafValues></_>
        <_>
          <internalNodes>
            0 -1 95 -1.8683418165892363e-03</internalNodes>
          <leafValues>
            3.0380177497863770e-01 -3.1753060221672058e-01</leafValues></_>
        <_>
          <internalNodes>
            0 -1 23 3.4634109586477280e-02</internalNodes>
          <leafValues>
            -2.0502261817455292e-01 6.1871618032455444e-01</leafValues></_>
        <_>
          <internalNodes>
            0 -1 162 -4.5683144708164036e-04</internalNodes>
          <leafValues>
            2.3643255233764648e-01 -5.4885727167129517e-01</leafValues></_></weakClassifiers></_>
    <!-- stage 12 -->
    <_>
      <maxWeakCount>13</maxWeakCount>
      <stageThreshold>-9.2001581192016602e-01</stageThreshold>
      <weakClassifiers>
        <_>
          <internalNodes>
            0 -1 70 -4.2438320815563202e-02</internalNodes>
          <leafValues>
            5.0000000000000000e-01 -2.1225070953369141e-01</leafValues></_>
        <_>
          <internalNodes>
            0 -1 83 -1.6619749367237091e-03</internalNodes>
          <leafValues>
            5.1127213239669800e-01 -1.9709914922714233e-01</leafValues></_>
        <_>
          <internalNodes>
            0 -1 37 6.0157827101647854e-03</internalNodes>
          <leafValues>
            -2.9567682743072510e-01 3.4172827005386353e-01</leafValues></_>
        <_>
          <internalNodes>
            0 -1 159 -1.5854377998039126e-03</internalNodes>
          <leafValues>
            -8.8416409492492676e-01 1.1558184027671814e-01</leafValues></_>
        <_>
          <internalNodes>
            0 -1 144 -3.4524465445429087e-04</internalNodes>
          <leafValues>
            1.3812662661075592e-01 -9.5485478639602661e-01</leafValues></_>
        <_>
          <internalNodes>
            0 -1 152 3.6817572545260191e-03</internalNodes>
          <leafValues>
            -6.7241078615188599e-01 1.0034186393022537e-01</leafValues></_>
        <_>
          <internalNodes>
            0 -1 148 -1.4484209939837456e-02</internalNodes>
          <leafValues>
            3.9564263820648193e-01 -2.1816703677177429e-01</leafValues></_>
        <_>
          <internalNodes>
            0 -1 127 7.7234275639057159e-02</internalNodes>
          <leafValues>
            -1.8021379411220551e-01 7.0559215545654297e-01</leafValues></_>
        <_>
          <internalNodes>
            0 -1 122 7.8971423208713531e-03</internalNodes>
          <leafValues>
            -2.2864657640457153e-01 4.3398985266685486e-01</leafValues></_>
        <_>
          <internalNodes>
            0 -1 75 1.7781771020963788e-03</internalNodes>
          <leafValues>
            -4.5379164814949036e-01 2.3629067838191986e-01</leafValues></_>
        <_>
          <internalNodes>
            0 -1 134 4.7685494064353406e-04</internalNodes>
          <leafValues>
            1.0924521088600159e-01 -8.7126475572586060e-01</leafValues></_>
        <_>
          <internalNodes>
            0 -1 139 -5.3180893883109093e-04</internalNodes>
          <leafValues>
            1.2879364192485809e-01 -5.9025585651397705e-01</leafValues></_>
        <_>
          <internalNodes>
            0 -1 130 -1.4612933620810509e-02</internalNodes>
          <leafValues>
            6.5776747465133667e-01 -1.4420290291309357e-01</leafValues></_></weakClassifiers></_>
    <!-- stage 13 -->
    <_>
      <maxWeakCount>13</maxWeakCount>
      <stageThreshold>-7.5651478767395020e-01</stageThreshold>
      <weakClassifiers>
        <_>
          <internalNodes>
            0 -1 145 -3.2783485949039459e-04</internalNodes>
          <leafValues>
            1.8246293067932129e-01 -6.3028955459594727e-01</leafValues></_>
        <_>
          <internalNodes>
            0 -1 44 -8.4204599261283875e-04</internalNodes>
          <leafValues>
            4.3479910492897034e-01 -2.3656599223613739e-01</leafValues></_>
        <_>
          <internalNodes>
            0 -1 68 -1.2735354248434305e-03</internalNodes>
          <leafValues>
            6.8578773736953735e-01 -1.3480453193187714e-01</leafValues></_>
        <_>
          <internalNodes>
            0 -1 154 -1.5480231377296150e-04</internalNodes>
          <leafValues>
            2.6746645569801331e-01 -4.1901096701622009e-01</leafValues></_>
        <_>
          <internalNodes>
            0 -1 156 4.9054005648940802e-04</internalNodes>
          <leafValues>
            1.7004130780696869e-01 -5.9012848138809204e-01</leafValues></_>
        <_>
          <internalNodes>
            0 -1 101 1.4722556807100773e-04</internalNodes>
          <leafValues>
            -6.0975259542465210e-01 1.7257711291313171e-01</leafValues></_>
        <_>
          <internalNodes>
            0 -1 115 -9.1328369453549385e-03</internalNodes>
          <leafValues>
            -8.2535022497177124e-01 6.2764108180999756e-02</leafValues></_>
        <_>
          <internalNodes>
            0 -1 6 -2.7523439377546310e-02</internalNodes>
          <leafValues>
            -6.8434745073318481e-01 1.1467259377241135e-01</leafValues></_>
        <_>
          <internalNodes>
            0 -1 71 3.3818096853792667e-03</internalNodes>
          <leafValues>
            -1.5080016851425171e-01 5.9990614652633667e-01</leafValues></_>
        <_>
          <internalNodes>
            0 -1 110 -5.0962611567229033e-05</internalNodes>
          <leafValues>
            1.3737997412681580e-01 -6.5936505794525146e-01</leafValues></_>
        <_>
          <internalNodes>
            0 -1 33 1.8093292601406574e-03</internalNodes>
          <leafValues>
            -6.9936692714691162e-01 1.3420669734477997e-01</leafValues></_>
        <_>
          <internalNodes>
            0 -1 56 -6.2269270420074463e-02</internalNodes>
          <leafValues>
            4.2964458465576172e-01 -2.3462580144405365e-01</leafValues></_>
        <_>
          <internalNodes>
            0 -1 32 -2.4085567565634847e-04</internalNodes>
          <leafValues>
            -2.0631839334964752e-01 5.3041654825210571e-01</leafValues></_></weakClassifiers></_>
    <!-- stage 14 -->
    <_>
      <maxWeakCount>15</maxWeakCount>
      <stageThreshold>-1.0449815988540649e+00</stageThreshold>
      <weakClassifiers>
        <_>
          <internalNodes>
            0 -1 99 -1.1104048462584615e-03</internalNodes>
          <leafValues>
            3.2261520624160767e-01 -2.8209933638572693e-01</leafValues></_>
        <_>
          <internalNodes>
            0 -1 136 -3.6056397948414087e-04</internalNodes>
          <leafValues>
            2.2704991698265076e-01 -4.7796177864074707e-01</leafValues></_>
        <_>
          <internalNodes>
            0 -1 135 3.4754602238535881e-03</internalNodes>
          <leafValues>
            -8.8661426305770874e-01 1.0145418345928192e-01</leafValues></_>
        <_>
          <internalNodes>
            0 -1 132 -6.3623469322919846e-03</internalNodes>
          <leafValues>
            1.0475409775972366e-01 -8.7689280509948730e-01</leafValues></_>
        <_>
          <internalNodes>
            0 -1 72 5.7729473337531090e-04</internalNodes>
          <leafValues>
            -6.2420439720153809e-01 1.3534605503082275e-01</leafValues></_>
        <_>
          <internalNodes>
            0 -1 92 1.9436404109001160e-02</internalNodes>
          <leafValues>
            -1.3299727439880371e-01 8.7073606252670288e-01</leafValues></_>
        <_>
          <internalNodes>
            0 -1 66 1.3947758125141263e-03</internalNodes>
          <leafValues>
            -2.7359080314636230e-01 3.4446474909782410e-01</leafValues></_>
        <_>
          <internalNodes>
            0 -1 170 -1.7078608274459839e-02</internalNodes>
          <leafValues>
            -6.3707166910171509e-01 1.7010614275932312e-01</leafValues></_>
        <_>
          <internalNodes>
            0 -1 166 -4.1661834984552115e-05</internalNodes>
          <leafValues>
            2.6169034838676453e-01 -3.2337668538093567e-01</leafValues></_>
        <_>
          <internalNodes>
            0 -1 20 -1.6929111443459988e-03</internalNodes>
          <leafValues>
            -7.2813498973846436e-01 8.3384595811367035e-02</leafValues></_>
        <_>
          <internalNodes>
            0 -1 131 5.8861693833023310e-04</internalNodes>
          <leafValues>
            7.4397675693035126e-02 -9.4146406650543213e-01</leafValues></_>
        <_>
          <internalNodes>
            0 -1 27 -9.8394975066184998e-03</internalNodes>
          <leafValues>
            6.5524607896804810e-01 -1.4986543357372284e-01</leafValues></_>
        <_>
          <internalNodes>
            0 -1 60 4.3318662792444229e-03</internalNodes>
          <leafValues>
            -1.8138986825942993e-01 4.1478684544563293e-01</leafValues></_>
        <_>
          <internalNodes>
            0 -1 50 1.7986499005928636e-03</internalNodes>
          <leafValues>
            3.9671254158020020e-01 -2.2169128060340881e-01</leafValues></_>
        <_>
          <internalNodes>
            0 -1 42 -4.1459091007709503e-03</internalNodes>
          <leafValues>
            4.8717132210731506e-01 -1.6546247899532318e-01</leafValues></_></weakClassifiers></_>
    <!-- stage 15 -->
    <_>
      <maxWeakCount>16</maxWeakCount>
      <stageThreshold>-9.7498369216918945e-01</stageThreshold>
      <weakClassifiers>
        <_>
          <internalNodes>
            0 -1 14 5.1842045650118962e-05</internalNodes>
          <leafValues>
            -4.0889525413513184e-01 2.1872602403163910e-01</leafValues></_>
        <_>
          <internalNodes>
            0 -1 52 1.4342729700729251e-03</internalNodes>
          <leafValues>
            -2.2881293296813965e-01 3.3523893356323242e-01</leafValues></_>
        <_>
          <internalNodes>
            0 -1 165 -8.3269434981048107e-04</internalNodes>
          <leafValues>
            -7.6159214973449707e-01 1.0184813290834427e-01</leafValues></_>
        <_>
          <internalNodes>
            0 -1 161 1.2028082273900509e-03</internalNodes>
          <leafValues>
            1.5804241597652435e-01 -6.3906961679458618e-01</leafValues></_>
        <_>
          <internalNodes>
            0 -1 3 4.6019377186894417e-03</internalNodes>
          <leafValues>
            1.2442836165428162e-01 -5.7459127902984619e-01</leafValues></_>
        <_>
          <internalNodes>
            0 -1 171 -1.1984045850113034e-03</internalNodes>
          <leafValues>
            -4.2352712154388428e-01 1.7457005381584167e-01</leafValues></_>
        <_>
          <internalNodes>
            0 -1 179 -5.4118428379297256e-03</internalNodes>
          <leafValues>
            -7.2527956962585449e-01 6.0054343193769455e-02</leafValues></_>
        <_>
          <internalNodes>
            0 -1 114 -3.4332065843045712e-03</internalNodes>
          <leafValues>
            -6.5251690149307251e-01 9.7530707716941833e-02</leafValues></_>
        <_>
          <internalNodes>
            0 -1 15 -4.2567169293761253e-03</internalNodes>
          <leafValues>
            -6.6404676437377930e-01 1.0215479880571365e-01</leafValues></_>
        <_>
          <internalNodes>
            0 -1 126 -2.6333755813539028e-03</internalNodes>
          <leafValues>
            1.2292004376649857e-01 -4.9120691418647766e-01</leafValues></_>
        <_>
          <internalNodes>
            0 -1 64 1.9630491733551025e-02</internalNodes>
          <leafValues>
            -2.4158851802349091e-01 2.9678547382354736e-01</leafValues></_>
        <_>
          <internalNodes>
            0 -1 39 -7.7700968831777573e-03</internalNodes>
          <leafValues>
            5.9897261857986450e-01 -1.3423185050487518e-01</leafValues></_>
        <_>
          <internalNodes>
            0 -1 107 8.4679748397320509e-04</internalNodes>
          <leafValues>
            -9.7077554464340210e-01 6.9330513477325439e-02</leafValues></_>
        <_>
          <internalNodes>
            0 -1 46 -1.3115628389641643e-03</internalNodes>
          <leafValues>
            6.0544043779373169e-01 -1.4270071685314178e-01</leafValues></_>
        <_>
          <internalNodes>
            0 -1 128 -1.3851933181285858e-04</internalNodes>
          <leafValues>
            3.1925606727600098e-01 -2.4278593063354492e-01</leafValues></_>
        <_>
          <internalNodes>
            0 -1 40 6.3397741178050637e-04</internalNodes>
          <leafValues>
            -1.9038321077823639e-01 3.8083383440971375e-01</leafValues></_></weakClassifiers></_>
    <!-- stage 16 -->
    <_>
      <maxWeakCount>22</maxWeakCount>
      <stageThreshold>-1.1481895446777344e+00</stageThreshold>
      <weakClassifiers>
        <_>
          <internalNodes>
            0 -1 119 7.5891136657446623e-04</internalNodes>
          <leafValues>
            -6.2371134757995605e-01 1.5012407302856445e-01</leafValues></_>
        <_>
          <internalNodes>
            0 -1 79 4.1429550037719309e-04</internalNodes>
          <leafValues>
            9.8265036940574646e-02 -7.0213449001312256e-01</leafValues></_>
        <_>
          <internalNodes>
            0 -1 169 6.4542551990598440e-04</internalNodes>
          <leafValues>
            -1.9847171008586884e-01 3.4894499182701111e-01</leafValues></_>
        <_>
          <internalNodes>
            0 -1 69 4.9127070233225822e-03</internalNodes>
          <leafValues>
            -7.4717029929161072e-02 6.6677993535995483e-01</leafValues></_>
        <_>
          <internalNodes>
            0 -1 16 -2.0016198977828026e-02</internalNodes>
          <leafValues>
            6.3859188556671143e-01 -1.5106177330017090e-01</leafValues></_>
        <_>
          <internalNodes>
            0 -1 89 2.3290496319532394e-02</internalNodes>
          <leafValues>
            -1.4030233025550842e-01 7.1786135435104370e-01</leafValues></_>
        <_>
          <internalNodes>
            0 -1 65 -2.8994688764214516e-03</internalNodes>
          <leafValues>
            4.7534033656120300e-01 -1.3284379243850708e-01</leafValues></_>
        <_>
          <internalNodes>
            0 -1 114 2.3429698776453733e-03</internalNodes>
          <leafValues>
            7.7357925474643707e-02 -8.7115448713302612e-01</leafValues></_>
        <_>
          <internalNodes>
            0 -1 111 5.9049576520919800e-04</internalNodes>
          <leafValues>
            -8.8529229164123535e-01 7.4579663574695587e-02</leafValues></_>
        <_>
          <internalNodes>
            0 -1 117 -1.5666601248085499e-03</internalNodes>
          <leafValues>
            4.2501723766326904e-01 -2.0487138628959656e-01</leafValues></_>
        <_>
          <internalNodes>
            0 -1 86 2.6287522632628679e-04</internalNodes>
          <leafValues>
            -3.0731725692749023e-01 2.8493750095367432e-01</leafValues></_>
        <_>
          <internalNodes>
            0 -1 29 -5.3484495729207993e-03</internalNodes>
          <leafValues>
            5.0176209211349487e-01 -1.3380806148052216e-01</leafValues></_>
        <_>
          <internalNodes>
            0 -1 31 1.8463905435055494e-03</internalNodes>
          <leafValues>
            -1.2676139175891876e-01 5.9492117166519165e-01</leafValues></_>
        <_>
          <internalNodes>
            0 -1 142 3.6131680826656520e-04</internalNodes>
          <leafValues>
            -8.3655291795730591e-01 9.1178432106971741e-02</leafValues></_>
        <_>
          <internalNodes>
            0 -1 41 -6.2142964452505112e-03</internalNodes>
          <leafValues>
            6.7987060546875000e-01 -1.1388646811246872e-01</leafValues></_>
        <_>
          <internalNodes>
            0 -1 109 -7.2618434205651283e-03</internalNodes>
          <leafValues>
            1.0418143123388290e-01 -7.7673697471618652e-01</leafValues></_>
        <_>
          <internalNodes>
            0 -1 10 -4.3240152299404144e-03</internalNodes>
          <leafValues>
            -7.6239800453186035e-01 6.4947396516799927e-02</leafValues></_>
        <_>
          <internalNodes>
            0 -1 175 7.2611391078680754e-04</internalNodes>
          <leafValues>
            1.3712345063686371e-01 -4.1425767540931702e-01</leafValues></_>
        <_>
          <internalNodes>
            0 -1 149 -7.9427473247051239e-03</internalNodes>
          <leafValues>
            -6.5423023700714111e-01 9.3004196882247925e-02</leafValues></_>
        <_>
          <internalNodes>
            0 -1 13 -7.0879963459447026e-04</internalNodes>
          <leafValues>
            -4.4785737991333008e-01 1.2845239043235779e-01</leafValues></_>
        <_>
          <internalNodes>
            0 -1 4 3.4145270474255085e-03</internalNodes>
          <leafValues>
            1.6724765300750732e-01 -3.7572380900382996e-01</leafValues></_>
        <_>
          <internalNodes>
            0 -1 174 -1.5843614935874939e-02</internalNodes>
          <leafValues>
            -5.8113557100296021e-01 1.1101586371660233e-01</leafValues></_></weakClassifiers></_>
    <!-- stage 17 -->
    <_>
      <maxWeakCount>19</maxWeakCount>
      <stageThreshold>-1.0094288587570190e+00</stageThreshold>
      <weakClassifiers>
        <_>
          <internalNodes>
            0 -1 74 2.8912567067891359e-03</internalNodes>
          <leafValues>
            -6.4497041702270508e-01 1.3116726279258728e-01</leafValues></_>
        <_>
          <internalNodes>
            0 -1 157 3.1731300987303257e-04</internalNodes>
          <leafValues>
            -6.6082364320755005e-01 1.0135395079851151e-01</leafValues></_>
        <_>
          <internalNodes>
            0 -1 141 1.9660804537124932e-04</internalNodes>
          <leafValues>
            6.5443530678749084e-02 -9.2830461263656616e-01</leafValues></_>
        <_>
          <internalNodes>
            0 -1 47 -6.5653951605781913e-04</internalNodes>
          <leafValues>
            2.6281452178955078e-01 -2.7256423234939575e-01</leafValues></_>
        <_>
          <internalNodes>
            0 -1 113 -1.4455923810601234e-03</internalNodes>
          <leafValues>
            3.0588051676750183e-01 -2.5847440958023071e-01</leafValues></_>
        <_>
          <internalNodes>
            0 -1 102 4.0266389260068536e-04</internalNodes>
          <leafValues>
            2.6724657416343689e-01 -3.0551725625991821e-01</leafValues></_>
        <_>
          <internalNodes>
            0 -1 90 2.4402385577559471e-02</internalNodes>
          <leafValues>
            -1.5387849509716034e-01 6.6635233163833618e-01</leafValues></_>
        <_>
          <internalNodes>
            0 -1 178 5.9394170530140400e-03</internalNodes>
          <leafValues>
            1.4266900718212128e-01 -5.8205330371856689e-01</leafValues></_>
        <_>
          <internalNodes>
            0 -1 31 9.2499086167663336e-04</internalNodes>
          <leafValues>
            -1.8315540254116058e-01 4.2853260040283203e-01</leafValues></_>
        <_>
          <internalNodes>
            0 -1 38 5.3832372650504112e-03</internalNodes>
          <leafValues>
            7.6472863554954529e-02 -9.4861167669296265e-01</leafValues></_>
        <_>
          <internalNodes>
            0 -1 77 1.5918441116809845e-02</internalNodes>
          <leafValues>
            -1.1577312648296356e-01 6.5240395069122314e-01</leafValues></_>
        <_>
          <internalNodes>
            0 -1 160 -7.4531021527945995e-04</internalNodes>
          <leafValues>
            1.3510897755622864e-01 -5.0247311592102051e-01</leafValues></_>
        <_>
          <internalNodes>
            0 -1 87 1.7888555303215981e-03</internalNodes>
          <leafValues>
            -1.3909167051315308e-01 4.5536592602729797e-01</leafValues></_>
        <_>
          <internalNodes>
            0 -1 24 7.4576986953616142e-03</internalNodes>
          <leafValues>
            3.0129402875900269e-01 -2.6931494474411011e-01</leafValues></_>
        <_>
          <internalNodes>
            0 -1 80 -1.5842469409108162e-02</internalNodes>
          <leafValues>
            4.9937897920608521e-01 -1.4197254180908203e-01</leafValues></_>
        <_>
          <internalNodes>
            0 -1 12 -2.8975743800401688e-02</internalNodes>
          <leafValues>
            6.7630922794342041e-01 -9.4196632504463196e-02</leafValues></_>
        <_>
          <internalNodes>
            0 -1 46 -6.6865538246929646e-04</internalNodes>
          <leafValues>
            4.0477013587951660e-01 -1.4767612516880035e-01</leafValues></_>
        <_>
          <internalNodes>
            0 -1 46 1.5999464085325599e-03</internalNodes>
          <leafValues>
            -1.0927646607160568e-01 6.6840416193008423e-01</leafValues></_>
        <_>
          <internalNodes>
            0 -1 173 3.1575800385326147e-03</internalNodes>
          <leafValues>
            1.2983490526676178e-01 -5.7495868206024170e-01</leafValues></_></weakClassifiers></_>
    <!-- stage 18 -->
    <_>
      <maxWeakCount>23</maxWeakCount>
      <stageThreshold>-1.2009705305099487e+00</stageThreshold>
      <weakClassifiers>
        <_>
          <internalNodes>
            0 -1 35 6.7099630832672119e-03</internalNodes>
          <leafValues>
            -4.1702741384506226e-01 2.2111706435680389e-01</leafValues></_>
        <_>
          <internalNodes>
            0 -1 145 -1.6786303604021668e-04</internalNodes>
          <leafValues>
            1.0869079083204269e-01 -7.5881415605545044e-01</leafValues></_>
        <_>
          <internalNodes>
            0 -1 5 -5.7750055566430092e-03</internalNodes>
          <leafValues>
            -7.2673523426055908e-01 8.5336044430732727e-02</leafValues></_>
        <_>
          <internalNodes>
            0 -1 82 6.1043992172926664e-04</internalNodes>
          <leafValues>
            7.1548119187355042e-02 -9.0698891878128052e-01</leafValues></_>
        <_>
          <internalNodes>
            0 -1 169 3.7579634226858616e-04</internalNodes>
          <leafValues>
            -2.3356094956398010e-01 2.5894197821617126e-01</leafValues></_>
        <_>
          <internalNodes>
            0 -1 9 -1.2101690471172333e-01</internalNodes>
          <leafValues>
            5.6856930255889893e-01 -1.1752327531576157e-01</leafValues></_>
        <_>
          <internalNodes>
            0 -1 93 6.9306008517742157e-03</internalNodes>
          <leafValues>
            -2.5869941711425781e-01 2.5301718711853027e-01</leafValues></_>
        <_>
          <internalNodes>
            0 -1 123 -2.5846868753433228e-02</internalNodes>
          <leafValues>
            6.8168240785598755e-01 -9.8072253167629242e-02</leafValues></_>
        <_>
          <internalNodes>
            0 -1 137 -2.3550383048132062e-04</internalNodes>
          <leafValues>
            8.2363478839397430e-02 -8.4383332729339600e-01</leafValues></_>
        <_>
          <internalNodes>
            0 -1 97 -8.2615215796977282e-04</internalNodes>
          <leafValues>
            -7.2257214784622192e-01 6.0562677681446075e-02</leafValues></_>
        <_>
          <internalNodes>
            0 -1 7 4.2879767715930939e-02</internalNodes>
          <leafValues>
            -9.9704615771770477e-02 7.2748190164566040e-01</leafValues></_>
        <_>
          <internalNodes>
            0 -1 68 1.7126149032264948e-03</internalNodes>
          <leafValues>
            -8.7737590074539185e-02 5.8210837841033936e-01</leafValues></_>
        <_>
          <internalNodes>
            0 -1 58 1.0599418310448527e-03</internalNodes>
          <leafValues>
            -8.3323466777801514e-01 6.8456508219242096e-02</leafValues></_>
        <_>
          <internalNodes>
            0 -1 167 2.6418694760650396e-03</internalNodes>
          <leafValues>
            -1.8857042491436005e-01 3.3468803763389587e-01</leafValues></_>
        <_>
          <internalNodes>
            0 -1 163 -6.0955531807849184e-05</internalNodes>
          <leafValues>
            2.8247484564781189e-01 -2.4559155106544495e-01</leafValues></_>
        <_>
          <internalNodes>
            0 -1 136 -1.5043336316011846e-04</internalNodes>
          <leafValues>
            1.4848424494266510e-01 -4.8406016826629639e-01</leafValues></_>
        <_>
          <internalNodes>
            0 -1 36 1.9917255267500877e-03</internalNodes>
          <leafValues>
            -1.9089849293231964e-01 3.9903911948204041e-01</leafValues></_>
        <_>
          <internalNodes>
            0 -1 155 1.0902548674494028e-03</internalNodes>
          <leafValues>
            1.1987403780221939e-01 -5.7628285884857178e-01</leafValues></_>
        <_>
          <internalNodes>
            0 -1 17 -2.3975251242518425e-03</internalNodes>
          <leafValues>
            -4.8732027411460876e-01 1.1170165985822678e-01</leafValues></_>
        <_>
          <internalNodes>
            0 -1 46 -1.7143690492957830e-03</internalNodes>
          <leafValues>
            5.5600553750991821e-01 -1.1037781089544296e-01</leafValues></_>
        <_>
          <internalNodes>
            0 -1 63 1.7945385770872235e-03</internalNodes>
          <leafValues>
            1.0552418977022171e-01 -6.0320156812667847e-01</leafValues></_>
        <_>
          <internalNodes>
            0 -1 62 2.7092208620160818e-04</internalNodes>
          <leafValues>
            -2.1240195631980896e-01 2.9573911428451538e-01</leafValues></_>
        <_>
          <internalNodes>
            0 -1 54 2.7801501564681530e-03</internalNodes>
          <leafValues>
            -6.8714690208435059e-01 8.8004708290100098e-02</leafValues></_></weakClassifiers></_>
    <!-- stage 19 -->
    <_>
      <maxWeakCount>21</maxWeakCount>
      <stageThreshold>-1.0270656347274780e+00</stageThreshold>
      <weakClassifiers>
        <_>
          <internalNodes>
            0 -1 85 5.0048890989273787e-04</internalNodes>
          <leafValues>
            -2.5827813148498535e-01 2.8950157761573792e-01</leafValues></_>
        <_>
          <internalNodes>
            0 -1 138 -1.3344365288503468e-04</internalNodes>
          <leafValues>
            -3.0932170152664185e-01 2.1490624547004700e-01</leafValues></_>
        <_>
          <internalNodes>
            0 -1 21 1.6030192375183105e-02</internalNodes>
          <leafValues>
            -1.6901311278343201e-01 4.0660983324050903e-01</leafValues></_>
        <_>
          <internalNodes>
            0 -1 124 -5.5034695833455771e-05</internalNodes>
          <leafValues>
            2.2132469713687897e-01 -3.2824453711509705e-01</leafValues></_>
        <_>
          <internalNodes>
            0 -1 116 5.3169945022091269e-04</internalNodes>
          <leafValues>
            -6.6390717029571533e-01 1.4116533100605011e-01</leafValues></_>
        <_>
          <internalNodes>
            0 -1 121 3.2526487484574318e-03</internalNodes>
          <leafValues>
            8.7256588041782379e-02 -7.0374751091003418e-01</leafValues></_>
        <_>
          <internalNodes>
            0 -1 0 -9.7944810986518860e-02</internalNodes>
          <leafValues>
            6.0851871967315674e-01 -1.1673682183027267e-01</leafValues></_>
        <_>
          <internalNodes>
            0 -1 168 -1.9865659996867180e-03</internalNodes>
          <leafValues>
            3.8410317897796631e-01 -2.1065190434455872e-01</leafValues></_>
        <_>
          <internalNodes>
            0 -1 176 5.2719109226018190e-04</internalNodes>
          <leafValues>
            1.5986770391464233e-01 -4.0275335311889648e-01</leafValues></_>
        <_>
          <internalNodes>
            0 -1 177 -6.4633711008355021e-04</internalNodes>
          <leafValues>
            -4.7435358166694641e-01 1.3160394132137299e-01</leafValues></_>
        <_>
          <internalNodes>
            0 -1 53 5.7469722814857960e-03</internalNodes>
          <leafValues>
            5.4206557571887970e-02 -8.3205765485763550e-01</leafValues></_>
        <_>
          <internalNodes>
            0 -1 2 -7.2556637227535248e-02</internalNodes>
          <leafValues>
            -4.1042342782020569e-01 1.5115152299404144e-01</leafValues></_>
        <_>
          <internalNodes>
            0 -1 125 -8.8227703236043453e-04</internalNodes>
          <leafValues>
            1.0906060785055161e-01 -5.9850883483886719e-01</leafValues></_>
        <_>
          <internalNodes>
            0 -1 172 -5.1591271767392755e-04</internalNodes>
          <leafValues>
            4.2408367991447449e-01 -1.3948550820350647e-01</leafValues></_>
        <_>
          <internalNodes>
            0 -1 102 5.8038282440975308e-04</internalNodes>
          <leafValues>
            1.9063642621040344e-01 -3.3315265178680420e-01</leafValues></_>
        <_>
          <internalNodes>
            0 -1 52 1.1777107138186693e-03</internalNodes>
          <leafValues>
            -2.5264248251914978e-01 2.6000449061393738e-01</leafValues></_>
        <_>
          <internalNodes>
            0 -1 30 -6.4571171998977661e-02</internalNodes>
          <leafValues>
            5.0419485569000244e-01 -1.2389428168535233e-01</leafValues></_>
        <_>
          <internalNodes>
            0 -1 110 -1.1887296568602324e-03</internalNodes>
          <leafValues>
            -6.3726168870925903e-01 1.2135443836450577e-01</leafValues></_>
        <_>
          <internalNodes>
            0 -1 48 -7.0400960743427277e-02</internalNodes>
          <leafValues>
            1.4403110742568970e-01 -4.2373487353324890e-01</leafValues></_>
        <_>
          <internalNodes>
            0 -1 1 2.2308188490569592e-03</internalNodes>
          <leafValues>
            1.1074608564376831e-01 -4.6444669365882874e-01</leafValues></_>
        <_>
          <internalNodes>
            0 -1 158 -2.5185791309922934e-03</internalNodes>
          <leafValues>
            -4.9221536517143250e-01 1.1027398705482483e-01</leafValues></_></weakClassifiers></_></stages>
  <features>
    <_>
      <rects>
        <_>
          0 0 18 10 -1.</_>
        <_>
          0 0 9 5 2.</_>
        <_>
          9 5 9 5 2.</_></rects>
      <tilted>0</tilted></_>
    <_>
      <rects>
        <_>
          0 7 2 9 -1.</_>
        <_>
          1 7 1 9 2.</_></rects>
      <tilted>0</tilted></_>
    <_>
      <rects>
        <_>
          0 9 22 14 -1.</_>
        <_>
          11 9 11 14 2.</_></rects>
      <tilted>0</tilted></_>
    <_>
      <rects>
        <_>
          0 15 15 2 -1.</_>
        <_>
          0 16 15 1 2.</_></rects>
      <tilted>0</tilted></_>
    <_>
      <rects>
        <_>
          0 16 4 4 -1.</_>
        <_>
          2 16 2 4 2.</_></rects>
      <tilted>0</tilted></_>
    <_>
      <rects>
        <_>
          1 1 2 15 -1.</_>
        <_>
          2 1 1 15 2.</_></rects>
      <tilted>0</tilted></_>
    <_>
      <rects>
        <_>
          1 2 6 13 -1.</_>
        <_>
          4 2 3 13 2.</_></rects>
      <tilted>0</tilted></_>
    <_>
      <rects>
        <_>
          1 15 6 5 -1.</_>
        <_>
          4 15 3 5 2.</_></rects>
      <tilted>0</tilted></_>
    <_>
      <rects>
        <_>
          2 4 12 18 -1.</_>
        <_>
          2 4 6 9 2.</_>
        <_>
          8 13 6 9 2.</_></rects>
      <tilted>0</tilted></_>
    <_>
      <rects>
        <_>
          2 5 16 7 -1.</_>
        <_>
          10 5 8 7 2.</_></rects>
      <tilted>0</tilted></_>
    <_>
      <rects>
        <_>
          3 10 2 6 -1.</_>
        <_>
          4 10 1 6 2.</_></rects>
      <tilted>0</tilted></_>
    <_>
      <rects>
        <_>
          3 14 11 2 -1.</_>
        <_>
          3 15 11 1 2.</_></rects>
      <tilted>0</tilted></_>
    <_>
      <rects>
        <_>
          3 18 7 4 -1.</_>
        <_>
          3 20 7 2 2.</_></rects>
      <tilted>0</tilted></_>
    <_>
      <rects>
        <_>
          4 14 10 2 -1.</_>
        <_>
          4 15 10 1 2.</_></rects>
      <tilted>0</tilted></_>
    <_>
      <rects>
        <_>
          4 15 8 2 -1.</_>
        <_>
          4 16 8 1 2.</_></rects>
      <tilted>0</tilted></_>
    <_>
      <rects>
        <_>
          5 4 2 10 -1.</_>
        <_>
          6 4 1 10 2.</_></rects>
      <tilted>0</tilted></_>
    <_>
      <rects>
        <_>
          5 19 5 4 -1.</_>
        <_>
          5 21 5 2 2.</_></rects>
      <tilted>0</tilted></_>
    <_>
      <rects>
        <_>
          6 0 2 10 -1.</_>
        <_>
          7 0 1 10 2.</_></rects>
      <tilted>0</tilted></_>
    <_>
      <rects>
        <_>
          6 3 10 18 -1.</_>
        <_>
          6 3 5 9 2.</_>
        <_>
          11 12 5 9 2.</_></rects>
      <tilted>0</tilted></_>
    <_>
      <rects>
        <_>
          6 13 8 2 -1.</_>
        <_>
          6 14 8 1 2.</_></rects>
      <tilted>0</tilted></_>
    <_>
      <rects>
        <_>
          6 13 9 2 -1.</_>
        <_>
          6 14 9 1 2.</_></rects>
      <tilted>0</tilted></_>
    <_>
      <rects>
        <_>
          6 20 18 4 -1.</_>
        <_>
          6 20 9 2 2.</_>
        <_>
          15 22 9 2 2.</_></rects>
      <tilted>0</tilted></_>
    <_>
      <rects>
        <_>
          7 7 8 6 -1.</_>
        <_>
          7 7 4 3 2.</_>
        <_>
          11 10 4 3 2.</_></rects>
      <tilted>0</tilted></_>
    <_>
      <rects>
        <_>
          7 7 8 14 -1.</_>
        <_>
          7 7 4 7 2.</_>
        <_>
          11 14 4 7 2.</_></rects>
      <tilted>0</tilted></_>
    <_>
      <rects>
        <_>
          7 9 6 13 -1.</_>
        <_>
          10 9 3 13 2.</_></rects>
      <tilted>0</tilted></_>
    <_>
      <rects>
        <_>
          7 13 6 4 -1.</_>
        <_>
          7 15 6 2 2.</_></rects>
      <tilted>0</tilted></_>
    <_>
      <rects>
        <_>
          7 14 4 6 -1.</_>
        <_>
          7 14 2 3 2.</_>
        <_>
          9 17 2 3 2.</_></rects>
      <tilted>0</tilted></_>
    <_>
      <rects>
        <_>
          7 15 4 3 -1.</_>
        <_>
          9 15 2 3 2.</_></rects>
      <tilted>0</tilted></_>
    <_>
      <rects>
        <_>
          7 15 4 4 -1.</_>
        <_>
          9 15 2 4 2.</_></rects>
      <tilted>0</tilted></_>
    <_>
      <rects>
        <_>
          7 16 4 2 -1.</_>
        <_>
          9 16 2 2 2.</_></rects>
      <tilted>0</tilted></_>
    <_>
      <rects>
        <_>
          8 5 6 16 -1.</_>
        <_>
          8 5 3 8 2.</_>
        <_>
          11 13 3 8 2.</_></rects>
      <tilted>0</tilted></_>
    <_>
      <rects>
        <_>
          8 10 2 2 -1.</_>
        <_>
          9 10 1 2 2.</_></rects>
      <tilted>0</tilted></_>
    <_>
      <rects>
        <_>
          8 11 6 8 -1.</_>
        <_>
          8 11 3 4 2.</_>
        <_>
          11 15 3 4 2.</_></rects>
      <tilted>0</tilted></_>
    <_>
      <rects>
        <_>
          8 12 8 1 -1.</_>
        <_>
          12 12 4 1 2.</_></rects>
      <tilted>0</tilted></_>
    <_>
      <rects>
        <_>
          8 12 5 4 -1.</_>
        <_>
          8 14 5 2 2.</_></rects>
      <tilted>0</tilted></_>
    <_>
      <rects>
        <_>
          8 12 6 4 -1.</_>
        <_>
          8 14 6 2 2.</_></rects>
      <tilted>0</tilted></_>
    <_>
      <rects>
        <_>
          8 13 4 8 -1.</_>
        <_>
          8 13 2 4 2.</_>
        <_>
          10 17 2 4 2.</_></rects>
      <tilted>0</tilted></_>
    <_>
      <rects>
        <_>
          8 13 5 6 -1.</_>
        <_>
          8 16 5 3 2.</_></rects>
      <tilted>0</tilted></_>
    <_>
      <rects>
        <_>
          8 14 7 2 -1.</_>
        <_>
          8 15 7 1 2.</_></rects>
      <tilted>0</tilted></_>
    <_>
      <rects>
        <_>
          8 15 4 2 -1.</_>
        <_>
          10 15 2 2 2.</_></rects>
      <tilted>0</tilted></_>
    <_>
      <rects>
        <_>
          8 16 1 2 -1.</_>
        <_>
          8 17 1 1 2.</_></rects>
      <tilted>0</tilted></_>
    <_>
      <rects>
        <_>
          8 22 4 2 -1.</_>
        <_>
          8 23 4 1 2.</_></rects>
      <tilted>0</tilted></_>
    <_>
      <rects>
        <_>
          8 22 6 2 -1.</_>
        <_>
          8 23 6 1 2.</_></rects>
      <tilted>0</tilted></_>
    <_>
      <rects>
        <_>
          9 6 7 4 -1.</_>
        <_>
          9 8 7 2 2.</_></rects>
      <tilted>0</tilted></_>
    <_>
      <rects>
        <_>
          9 9 2 2 -1.</_>
        <_>
          9 9 1 1 2.</_>
        <_>
          10 10 1 1 2.</_></rects>
      <tilted>0</tilted></_>
    <_>
      <rects>
        <_>
          9 9 14 11 -1.</_>
        <_>
          16 9 7 11 2.</_></rects>
      <tilted>0</tilted></_>
    <_>
      <rects>
        <_>
          9 10 2 2 -1.</_>
        <_>
          9 10 1 1 2.</_>
        <_>
          10 11 1 1 2.</_></rects>
      <tilted>0</tilted></_>
    <_>
      <rects>
        <_>
          9 10 2 2 -1.</_>
        <_>
          9 11 2 1 2.</_></rects>
      <tilted>0</tilted></_>
    <_>
      <rects>
        <_>
          9 10 6 4 -1.</_>
        <_>
          11 10 2 4 2.</_></rects>
      <tilted>0</tilted></_>
    <_>
      <rects>
        <_>
          9 10 4 7 -1.</_>
        <_>
          11 10 2 7 2.</_></rects>
      <tilted>0</tilted></_>
    <_>
      <rects>
        <_>
          9 10 4 8 -1.</_>
        <_>
          11 10 2 8 2.</_></rects>
      <tilted>0</tilted></_>
    <_>
      <rects>
        <_>
          9 10 4 9 -1.</_>
        <_>
          11 10 2 9 2.</_></rects>
      <tilted>0</tilted></_>
    <_>
      <rects>
        <_>
          9 11 2 2 -1.</_>
        <_>
          9 11 1 1 2.</_>
        <_>
          10 12 1 1 2.</_></rects>
      <tilted>0</tilted></_>
    <_>
      <rects>
        <_>
          9 11 2 3 -1.</_>
        <_>
          10 11 1 3 2.</_></rects>
      <tilted>0</tilted></_>
    <_>
      <rects>
        <_>
          9 11 6 1 -1.</_>
        <_>
          12 11 3 1 2.</_></rects>
      <tilted>0</tilted></_>
    <_>
      <rects>
        <_>
          9 11 8 6 -1.</_>
        <_>
          9 11 4 3 2.</_>
        <_>
          13 14 4 3 2.</_></rects>
      <tilted>0</tilted></_>
    <_>
      <rects>
        <_>
          9 11 10 6 -1.</_>
        <_>
          14 11 5 6 2.</_></rects>
      <tilted>0</tilted></_>
    <_>
      <rects>
        <_>
          9 12 4 2 -1.</_>
        <_>
          9 13 4 1 2.</_></rects>
      <tilted>0</tilted></_>
    <_>
      <rects>
        <_>
          9 12 5 2 -1.</_>
        <_>
          9 13 5 1 2.</_></rects>
      <tilted>0</tilted></_>
    <_>
      <rects>
        <_>
          9 12 6 2 -1.</_>
        <_>
          9 13 6 1 2.</_></rects>
      <tilted>0</tilted></_>
    <_>
      <rects>
        <_>
          9 14 2 3 -1.</_>
        <_>
          10 14 1 3 2.</_></rects>
      <tilted>0</tilted></_>
    <_>
      <rects>
        <_>
          9 15 3 3 -1.</_>
        <_>
          9 16 3 1 2.</_></rects>
      <tilted>0</tilted></_>
    <_>
      <rects>
        <_>
          9 17 1 2 -1.</_>
        <_>
          9 18 1 1 2.</_></rects>
      <tilted>0</tilted></_>
    <_>
      <rects>
        <_>
          9 17 5 2 -1.</_>
        <_>
          9 18 5 1 2.</_></rects>
      <tilted>0</tilted></_>
    <_>
      <rects>
        <_>
          10 5 6 6 -1.</_>
        <_>
          10 8 6 3 2.</_></rects>
      <tilted>0</tilted></_>
    <_>
      <rects>
        <_>
          10 7 10 2 -1.</_>
        <_>
          10 7 5 1 2.</_>
        <_>
          15 8 5 1 2.</_></rects>
      <tilted>0</tilted></_>
    <_>
      <rects>
        <_>
          10 8 3 2 -1.</_>
        <_>
          10 9 3 1 2.</_></rects>
      <tilted>0</tilted></_>
    <_>
      <rects>
        <_>
          10 8 10 2 -1.</_>
        <_>
          10 9 10 1 2.</_></rects>
      <tilted>0</tilted></_>
    <_>
      <rects>
        <_>
          10 9 2 2 -1.</_>
        <_>
          10 9 1 1 2.</_>
        <_>
          11 10 1 1 2.</_></rects>
      <tilted>0</tilted></_>
    <_>
      <rects>
        <_>
          10 9 2 8 -1.</_>
        <_>
          10 9 1 4 2.</_>
        <_>
          11 13 1 4 2.</_></rects>
      <tilted>0</tilted></_>
    <_>
      <rects>
        <_>
          10 9 6 10 -1.</_>
        <_>
          10 9 3 5 2.</_>
        <_>
          13 14 3 5 2.</_></rects>
      <tilted>0</tilted></_>
    <_>
      <rects>
        <_>
          10 10 4 10 -1.</_>
        <_>
          10 10 2 5 2.</_>
        <_>
          12 15 2 5 2.</_></rects>
      <tilted>0</tilted></_>
    <_>
      <rects>
        <_>
          10 11 2 1 -1.</_>
        <_>
          11 11 1 1 2.</_></rects>
      <tilted>0</tilted></_>
    <_>
      <rects>
        <_>
          10 11 2 2 -1.</_>
        <_>
          11 11 1 2 2.</_></rects>
      <tilted>0</tilted></_>
    <_>
      <rects>
        <_>
          10 11 4 1 -1.</_>
        <_>
          12 11 2 1 2.</_></rects>
      <tilted>0</tilted></_>
    <_>
      <rects>
        <_>
          10 11 6 1 -1.</_>
        <_>
          13 11 3 1 2.</_></rects>
      <tilted>0</tilted></_>
    <_>
      <rects>
        <_>
          10 11 4 4 -1.</_>
        <_>
          10 13 4 2 2.</_></rects>
      <tilted>0</tilted></_>
    <_>
      <rects>
        <_>
          10 11 14 1 -1.</_>
        <_>
          17 11 7 1 2.</_></rects>
      <tilted>0</tilted></_>
    <_>
      <rects>
        <_>
          10 12 2 1 -1.</_>
        <_>
          11 12 1 1 2.</_></rects>
      <tilted>0</tilted></_>
    <_>
      <rects>
        <_>
          10 12 2 2 -1.</_>
        <_>
          10 12 1 1 2.</_>
        <_>
          11 13 1 1 2.</_></rects>
      <tilted>0</tilted></_>
    <_>
      <rects>
        <_>
          10 12 6 6 -1.</_>
        <_>
          10 12 3 3 2.</_>
        <_>
          13 15 3 3 2.</_></rects>
      <tilted>0</tilted></_>
    <_>
      <rects>
        <_>
          10 12 4 2 -1.</_>
        <_>
          10 13 4 1 2.</_></rects>
      <tilted>0</tilted></_>
    <_>
      <rects>
        <_>
          10 13 2 2 -1.</_>
        <_>
          10 13 1 1 2.</_>
        <_>
          11 14 1 1 2.</_></rects>
      <tilted>0</tilted></_>
    <_>
      <rects>
        <_>
          10 13 2 4 -1.</_>
        <_>
          11 13 1 4 2.</_></rects>
      <tilted>0</tilted></_>
    <_>
      <rects>
        <_>
          10 13 4 6 -1.</_>
        <_>
          12 13 2 6 2.</_></rects>
      <tilted>0</tilted></_>
    <_>
      <rects>
        <_>
          10 14 1 2 -1.</_>
        <_>
          10 15 1 1 2.</_></rects>
      <tilted>0</tilted></_>
    <_>
      <rects>
        <_>
          10 15 1 2 -1.</_>
        <_>
          10 16 1 1 2.</_></rects>
      <tilted>0</tilted></_>
    <_>
      <rects>
        <_>
          10 16 2 1 -1.</_>
        <_>
          11 16 1 1 2.</_></rects>
      <tilted>0</tilted></_>
    <_>
      <rects>
        <_>
          11 4 4 8 -1.</_>
        <_>
          11 8 4 4 2.</_></rects>
      <tilted>0</tilted></_>
    <_>
      <rects>
        <_>
          11 5 4 18 -1.</_>
        <_>
          11 5 2 9 2.</_>
        <_>
          13 14 2 9 2.</_></rects>
      <tilted>0</tilted></_>
    <_>
      <rects>
        <_>
          11 5 6 16 -1.</_>
        <_>
          11 5 3 8 2.</_>
        <_>
          14 13 3 8 2.</_></rects>
      <tilted>0</tilted></_>
    <_>
      <rects>
        <_>
          11 6 2 4 -1.</_>
        <_>
          11 8 2 2 2.</_></rects>
      <tilted>0</tilted></_>
    <_>
      <rects>
        <_>
          11 6 6 12 -1.</_>
        <_>
          11 6 3 6 2.</_>
        <_>
          14 12 3 6 2.</_></rects>
      <tilted>0</tilted></_>
    <_>
      <rects>
        <_>
          11 6 4 4 -1.</_>
        <_>
          11 8 4 2 2.</_></rects>
      <tilted>0</tilted></_>
    <_>
      <rects>
        <_>
          11 6 4 6 -1.</_>
        <_>
          11 9 4 3 2.</_></rects>
      <tilted>0</tilted></_>
    <_>
      <rects>
        <_>
          11 7 2 14 -1.</_>
        <_>
          12 7 1 14 2.</_></rects>
      <tilted>0</tilted></_>
    <_>
      <rects>
        <_>
          11 8 4 8 -1.</_>
        <_>
          13 8 2 8 2.</_></rects>
      <tilted>0</tilted></_>
    <_>
      <rects>
        <_>
          11 9 2 4 -1.</_>
        <_>
          11 9 1 2 2.</_>
        <_>
          12 11 1 2 2.</_></rects>
      <tilted>0</tilted></_>
    <_>
      <rects>
        <_>
          11 9 3 3 -1.</_>
        <_>
          12 9 1 3 2.</_></rects>
      <tilted>0</tilted></_>
    <_>
      <rects>
        <_>
          11 9 2 10 -1.</_>
        <_>
          12 9 1 10 2.</_></rects>
      <tilted>0</tilted></_>
    <_>
      <rects>
        <_>
          11 9 3 6 -1.</_>
        <_>
          11 12 3 3 2.</_></rects>
      <tilted>0</tilted></_>
    <_>
      <rects>
        <_>
          11 9 8 2 -1.</_>
        <_>
          11 10 8 1 2.</_></rects>
      <tilted>0</tilted></_>
    <_>
      <rects>
        <_>
          11 10 2 2 -1.</_>
        <_>
          11 10 1 1 2.</_>
        <_>
          12 11 1 1 2.</_></rects>
      <tilted>0</tilted></_>
    <_>
      <rects>
        <_>
          11 10 4 2 -1.</_>
        <_>
          11 10 2 1 2.</_>
        <_>
          13 11 2 1 2.</_></rects>
      <tilted>0</tilted></_>
    <_>
      <rects>
        <_>
          11 10 2 4 -1.</_>
        <_>
          11 12 2 2 2.</_></rects>
      <tilted>0</tilted></_>
    <_>
      <rects>
        <_>
          11 10 4 4 -1.</_>
        <_>
          13 10 2 4 2.</_></rects>
      <tilted>0</tilted></_>
    <_>
      <rects>
        <_>
          11 10 3 2 -1.</_>
        <_>
          11 11 3 1 2.</_></rects>
      <tilted>0</tilted></_>
    <_>
      <rects>
        <_>
          11 10 4 2 -1.</_>
        <_>
          11 11 4 1 2.</_></rects>
      <tilted>0</tilted></_>
    <_>
      <rects>
        <_>
          11 11 2 1 -1.</_>
        <_>
          12 11 1 1 2.</_></rects>
      <tilted>0</tilted></_>
    <_>
      <rects>
        <_>
          11 11 3 1 -1.</_>
        <_>
          12 11 1 1 2.</_></rects>
      <tilted>0</tilted></_>
    <_>
      <rects>
        <_>
          11 11 2 2 -1.</_>
        <_>
          11 11 1 1 2.</_>
        <_>
          12 12 1 1 2.</_></rects>
      <tilted>0</tilted></_>
    <_>
      <rects>
        <_>
          11 11 2 2 -1.</_>
        <_>
          12 11 1 2 2.</_></rects>
      <tilted>0</tilted></_>
    <_>
      <rects>
        <_>
          11 11 3 2 -1.</_>
        <_>
          12 11 1 2 2.</_></rects>
      <tilted>0</tilted></_>
    <_>
      <rects>
        <_>
          11 11 2 6 -1.</_>
        <_>
          12 11 1 6 2.</_></rects>
      <tilted>0</tilted></_>
    <_>
      <rects>
        <_>
          11 11 4 2 -1.</_>
        <_>
          13 11 2 2 2.</_></rects>
      <tilted>0</tilted></_>
    <_>
      <rects>
        <_>
          11 11 4 3 -1.</_>
        <_>
          13 11 2 3 2.</_></rects>
      <tilted>0</tilted></_>
    <_>
      <rects>
        <_>
          11 12 1 2 -1.</_>
        <_>
          11 13 1 1 2.</_></rects>
      <tilted>0</tilted></_>
    <_>
      <rects>
        <_>
          11 12 2 3 -1.</_>
        <_>
          12 12 1 3 2.</_></rects>
      <tilted>0</tilted></_>
    <_>
      <rects>
        <_>
          11 12 4 1 -1.</_>
        <_>
          13 12 2 1 2.</_></rects>
      <tilted>0</tilted></_>
    <_>
      <rects>
        <_>
          11 12 2 2 -1.</_>
        <_>
          11 13 2 1 2.</_></rects>
      <tilted>0</tilted></_>
    <_>
      <rects>
        <_>
          11 12 4 2 -1.</_>
        <_>
          11 12 2 1 2.</_>
        <_>
          13 13 2 1 2.</_></rects>
      <tilted>0</tilted></_>
    <_>
      <rects>
        <_>
          11 12 3 2 -1.</_>
        <_>
          11 13 3 1 2.</_></rects>
      <tilted>0</tilted></_>
    <_>
      <rects>
        <_>
          12 4 1 8 -1.</_>
        <_>
          12 8 1 4 2.</_></rects>
      <tilted>0</tilted></_>
    <_>
      <rects>
        <_>
          12 4 6 6 -1.</_>
        <_>
          15 4 3 6 2.</_></rects>
      <tilted>0</tilted></_>
    <_>
      <rects>
        <_>
          12 6 2 4 -1.</_>
        <_>
          12 6 1 2 2.</_>
        <_>
          13 8 1 2 2.</_></rects>
      <tilted>0</tilted></_>
    <_>
      <rects>
        <_>
          12 6 2 10 -1.</_>
        <_>
          13 6 1 10 2.</_></rects>
      <tilted>0</tilted></_>
    <_>
      <rects>
        <_>
          12 6 2 11 -1.</_>
        <_>
          13 6 1 11 2.</_></rects>
      <tilted>0</tilted></_>
    <_>
      <rects>
        <_>
          12 6 12 6 -1.</_>
        <_>
          18 6 6 6 2.</_></rects>
      <tilted>0</tilted></_>
    <_>
      <rects>
        <_>
          12 7 2 4 -1.</_>
        <_>
          12 7 1 2 2.</_>
        <_>
          13 9 1 2 2.</_></rects>
      <tilted>0</tilted></_>
    <_>
      <rects>
        <_>
          12 7 2 9 -1.</_>
        <_>
          13 7 1 9 2.</_></rects>
      <tilted>0</tilted></_>
    <_>
      <rects>
        <_>
          12 7 6 3 -1.</_>
        <_>
          15 7 3 3 2.</_></rects>
      <tilted>0</tilted></_>
    <_>
      <rects>
        <_>
          12 8 2 7 -1.</_>
        <_>
          13 8 1 7 2.</_></rects>
      <tilted>0</tilted></_>
    <_>
      <rects>
        <_>
          12 9 3 1 -1.</_>
        <_>
          13 9 1 1 2.</_></rects>
      <tilted>0</tilted></_>
    <_>
      <rects>
        <_>
          12 9 1 6 -1.</_>
        <_>
          12 12 1 3 2.</_></rects>
      <tilted>0</tilted></_>
    <_>
      <rects>
        <_>
          12 9 2 5 -1.</_>
        <_>
          13 9 1 5 2.</_></rects>
      <tilted>0</tilted></_>
    <_>
      <rects>
        <_>
          12 9 2 6 -1.</_>
        <_>
          12 12 2 3 2.</_></rects>
      <tilted>0</tilted></_>
    <_>
      <rects>
        <_>
          12 10 2 2 -1.</_>
        <_>
          12 10 1 1 2.</_>
        <_>
          13 11 1 1 2.</_></rects>
      <tilted>0</tilted></_>
    <_>
      <rects>
        <_>
          12 10 2 4 -1.</_>
        <_>
          13 10 1 4 2.</_></rects>
      <tilted>0</tilted></_>
    <_>
      <rects>
        <_>
          12 10 4 1 -1.</_>
        <_>
          14 10 2 1 2.</_></rects>
      <tilted>0</tilted></_>
    <_>
      <rects>
        <_>
          12 10 4 2 -1.</_>
        <_>
          12 10 2 1 2.</_>
        <_>
          14 11 2 1 2.</_></rects>
      <tilted>0</tilted></_>
    <_>
      <rects>
        <_>
          12 11 1 2 -1.</_>
        <_>
          12 12 1 1 2.</_></rects>
      <tilted>0</tilted></_>
    <_>
      <rects>
        <_>
          12 11 2 2 -1.</_>
        <_>
          13 11 1 2 2.</_></rects>
      <tilted>0</tilted></_>
    <_>
      <rects>
        <_>
          12 11 2 2 -1.</_>
        <_>
          12 12 2 1 2.</_></rects>
      <tilted>0</tilted></_>
    <_>
      <rects>
        <_>
          12 11 3 2 -1.</_>
        <_>
          12 12 3 1 2.</_></rects>
      <tilted>0</tilted></_>
    <_>
      <rects>
        <_>
          12 12 2 1 -1.</_>
        <_>
          13 12 1 1 2.</_></rects>
      <tilted>0</tilted></_>
    <_>
      <rects>
        <_>
          12 12 2 2 -1.</_>
        <_>
          12 12 1 1 2.</_>
        <_>
          13 13 1 1 2.</_></rects>
      <tilted>0</tilted></_>
    <_>
      <rects>
        <_>
          12 12 2 2 -1.</_>
        <_>
          13 12 1 2 2.</_></rects>
      <tilted>0</tilted></_>
    <_>
      <rects>
        <_>
          12 13 2 1 -1.</_>
        <_>
          13 13 1 1 2.</_></rects>
      <tilted>0</tilted></_>
    <_>
      <rects>
        <_>
          13 2 4 13 -1.</_>
        <_>
          15 2 2 13 2.</_></rects>
      <tilted>0</tilted></_>
    <_>
      <rects>
        <_>
          13 5 2 10 -1.</_>
        <_>
          14 5 1 10 2.</_></rects>
      <tilted>0</tilted></_>
    <_>
      <rects>
        <_>
          13 6 1 8 -1.</_>
        <_>
          13 10 1 4 2.</_></rects>
      <tilted>0</tilted></_>
    <_>
      <rects>
        <_>
          13 6 2 15 -1.</_>
        <_>
          13 11 2 5 2.</_></rects>
      <tilted>0</tilted></_>
    <_>
      <rects>
        <_>
          13 7 2 8 -1.</_>
        <_>
          13 11 2 4 2.</_></rects>
      <tilted>0</tilted></_>
    <_>
      <rects>
        <_>
          13 9 1 2 -1.</_>
        <_>
          13 10 1 1 2.</_></rects>
      <tilted>0</tilted></_>
    <_>
      <rects>
        <_>
          13 9 2 2 -1.</_>
        <_>
          13 9 1 1 2.</_>
        <_>
          14 10 1 1 2.</_></rects>
      <tilted>0</tilted></_>
    <_>
      <rects>
        <_>
          13 9 2 3 -1.</_>
        <_>
          14 9 1 3 2.</_></rects>
      <tilted>0</tilted></_>
    <_>
      <rects>
        <_>
          13 9 2 4 -1.</_>
        <_>
          14 9 1 4 2.</_></rects>
      <tilted>0</tilted></_>
    <_>
      <rects>
        <_>
          13 9 2 2 -1.</_>
        <_>
          13 10 2 1 2.</_></rects>
      <tilted>0</tilted></_>
    <_>
      <rects>
        <_>
          13 10 2 4 -1.</_>
        <_>
          13 10 1 2 2.</_>
        <_>
          14 12 1 2 2.</_></rects>
      <tilted>0</tilted></_>
    <_>
      <rects>
        <_>
          13 11 2 1 -1.</_>
        <_>
          14 11 1 1 2.</_></rects>
      <tilted>0</tilted></_>
    <_>
      <rects>
        <_>
          13 11 2 2 -1.</_>
        <_>
          14 11 1 2 2.</_></rects>
      <tilted>0</tilted></_>
    <_>
      <rects>
        <_>
          13 11 2 2 -1.</_>
        <_>
          13 12 2 1 2.</_></rects>
      <tilted>0</tilted></_>
    <_>
      <rects>
        <_>
          13 12 2 1 -1.</_>
        <_>
          14 12 1 1 2.</_></rects>
      <tilted>0</tilted></_>
    <_>
      <rects>
        <_>
          13 13 2 2 -1.</_>
        <_>
          13 13 1 1 2.</_>
        <_>
          14 14 1 1 2.</_></rects>
      <tilted>0</tilted></_>
    <_>
      <rects>
        <_>
          14 10 1 2 -1.</_>
        <_>
          14 11 1 1 2.</_></rects>
      <tilted>0</tilted></_>
    <_>
      <rects>
        <_>
          14 11 1 2 -1.</_>
        <_>
          14 12 1 1 2.</_></rects>
      <tilted>0</tilted></_>
    <_>
      <rects>
        <_>
          14 12 2 2 -1.</_>
        <_>
          14 12 1 1 2.</_>
        <_>
          15 13 1 1 2.</_></rects>
      <tilted>0</tilted></_>
    <_>
      <rects>
        <_>
          15 8 1 4 -1.</_>
        <_>
          15 10 1 2 2.</_></rects>
      <tilted>0</tilted></_>
    <_>
      <rects>
        <_>
          15 12 2 2 -1.</_>
        <_>
          16 12 1 2 2.</_></rects>
      <tilted>0</tilted></_>
    <_>
      <rects>
        <_>
          15 13 2 2 -1.</_>
        <_>
          15 13 1 1 2.</_>
        <_>
          16 14 1 1 2.</_></rects>
      <tilted>0</tilted></_>
    <_>
      <rects>
        <_>
          15 14 6 7 -1.</_>
        <_>
          18 14 3 7 2.</_></rects>
      <tilted>0</tilted></_>
    <_>
      <rects>
        <_>
          16 13 2 7 -1.</_>
        <_>
          17 13 1 7 2.</_></rects>
      <tilted>0</tilted></_>
    <_>
      <rects>
        <_>
          17 10 2 2 -1.</_>
        <_>
          17 10 1 1 2.</_>
        <_>
          18 11 1 1 2.</_></rects>
      <tilted>0</tilted></_>
    <_>
      <rects>
        <_>
          17 16 2 6 -1.</_>
        <_>
          18 16 1 6 2.</_></rects>
      <tilted>0</tilted></_>
    <_>
      <rects>
        <_>
          20 0 4 22 -1.</_>
        <_>
          22 0 2 22 2.</_></rects>
      <tilted>0</tilted></_>
    <_>
      <rects>
        <_>
          20 2 1 4 -1.</_>
        <_>
          20 4 1 2 2.</_></rects>
      <tilted>0</tilted></_>
    <_>
      <rects>
        <_>
          21 0 2 2 -1.</_>
        <_>
          22 0 1 2 2.</_></rects>
      <tilted>0</tilted></_>
    <_>
      <rects>
        <_>
          21 1 2 2 -1.</_>
        <_>
          22 1 1 2 2.</_></rects>
      <tilted>0</tilted></_>
    <_>
      <rects>
        <_>
          21 1 2 21 -1.</_>
        <_>
          22 1 1 21 2.</_></rects>
      <tilted>0</tilted></_>
    <_>
      <rects>
        <_>
          21 6 2 17 -1.</_>
        <_>
          22 6 1 17 2.</_></rects>
      <tilted>0</tilted></_></features></cascade>
</opencv_storage>
