<?xml version="1.0"?>
<opencv_storage>
<cascade>
  <stageType>BOOST</stageType>
  <featureType>HAAR</featureType>
  <height>24</height>
  <width>24</width>
  <stageParams>
    <boostType>GAB</boostType>
    <minHitRate>9.9500000476837158e-01</minHitRate>
    <maxFalseAlarm>5.0000000000000000e-01</maxFalseAlarm>
    <weightTrimRate>9.4999999999999996e-01</weightTrimRate>
    <maxDepth>1</maxDepth>
    <maxWeakCount>100</maxWeakCount></stageParams>
  <featureParams>
    <maxCatCount>0</maxCatCount>
    <featSize>1</featSize>
    <mode>BASIC</mode></featureParams>
  <stageNum>5</stageNum>
  <stages>
    <!-- stage 0 -->
    <_>
      <maxWeakCount>1</maxWeakCount>
      <stageThreshold>9.7822862863540649e-01</stageThreshold>
      <weakClassifiers>
        <_>
          <internalNodes>
            0 -1 9 -4.6370537020266056e-03</internalNodes>
          <leafValues>
            9.7822862863540649e-01 -9.9795711040496826e-01</leafValues></_></weakClassifiers></_>
    <!-- stage 1 -->
    <_>
      <maxWeakCount>2</maxWeakCount>
      <stageThreshold>-1.3089571893215179e-01</stageThreshold>
      <weakClassifiers>
        <_>
          <internalNodes>
            0 -1 11 -1.1922209523618221e-03</internalNodes>
          <leafValues>
            8.2377237081527710e-01 -9.6833127737045288e-01</leafValues></_>
        <_>
          <internalNodes>
            0 -1 4 -1.8489763140678406e-02</internalNodes>
          <leafValues>
            8.3743560314178467e-01 -7.5299394130706787e-01</leafValues></_></weakClassifiers></_>
    <!-- stage 2 -->
    <_>
      <maxWeakCount>3</maxWeakCount>
      <stageThreshold>-9.3372672796249390e-01</stageThreshold>
      <weakClassifiers>
        <_>
          <internalNodes>
            0 -1 15 4.5055337250232697e-03</internalNodes>
          <leafValues>
            -7.5836032629013062e-01 8.2151472568511963e-01</leafValues></_>
        <_>
          <internalNodes>
            0 -1 5 3.4311399795114994e-03</internalNodes>
          <leafValues>
            -7.9600077867507935e-01 7.5399631261825562e-01</leafValues></_>
        <_>
          <internalNodes>
            0 -1 6 2.3756466805934906e-02</internalNodes>
          <leafValues>
            -6.6134279966354370e-01 6.2063437700271606e-01</leafValues></_></weakClassifiers></_>
    <!-- stage 3 -->
    <_>
      <maxWeakCount>5</maxWeakCount>
      <stageThreshold>-8.9623308181762695e-01</stageThreshold>
      <weakClassifiers>
        <_>
          <internalNodes>
            0 -1 14 2.1574463695287704e-02</internalNodes>
          <leafValues>
            -4.8359966278076172e-01 8.6968523263931274e-01</leafValues></_>
        <_>
          <internalNodes>
            0 -1 2 1.3080453500151634e-02</internalNodes>
          <leafValues>
            -7.1086162328720093e-01 7.4485194683074951e-01</leafValues></_>
        <_>
          <internalNodes>
            0 -1 13 -8.2032773643732071e-03</internalNodes>
          <leafValues>
            5.0949585437774658e-01 -6.1130726337432861e-01</leafValues></_>
        <_>
          <internalNodes>
            0 -1 1 4.7631091438233852e-03</internalNodes>
          <leafValues>
            -5.6761592626571655e-01 4.9415391683578491e-01</leafValues></_>
        <_>
          <internalNodes>
            0 -1 12 -5.0331151578575373e-04</internalNodes>
          <leafValues>
            3.5634830594062805e-01 -8.5185438394546509e-01</leafValues></_></weakClassifiers></_>
    <!-- stage 4 -->
    <_>
      <maxWeakCount>6</maxWeakCount>
      <stageThreshold>-7.6069152355194092e-01</stageThreshold>
      <weakClassifiers>
        <_>
          <internalNodes>
            0 -1 8 -9.4431340694427490e-03</internalNodes>
          <leafValues>
            6.6917294263839722e-01 -6.9418132305145264e-01</leafValues></_>
        <_>
          <internalNodes>
            0 -1 3 5.1796832121908665e-03</internalNodes>
          <leafValues>
            -7.5238490104675293e-01 5.4654109477996826e-01</leafValues></_>
        <_>
          <internalNodes>
            0 -1 16 4.1505312547087669e-03</internalNodes>
          <leafValues>
            -7.2907799482345581e-01 5.3593224287033081e-01</leafValues></_>
        <_>
          <internalNodes>
            0 -1 10 3.1210105866193771e-02</internalNodes>
          <leafValues>
            -4.7650220990180969e-01 6.7515134811401367e-01</leafValues></_>
        <_>
          <internalNodes>
            0 -1 7 -7.8935466706752777e-02</internalNodes>
          <leafValues>
            -8.7225687503814697e-01 2.8194290399551392e-01</leafValues></_>
        <_>
          <internalNodes>
            0 -1 0 8.9105777442455292e-03</internalNodes>
          <leafValues>
            -6.5993624925613403e-01 3.1058606505393982e-01</leafValues></_></weakClassifiers></_></stages>
  <features>
    <_>
      <rects>
        <_>
          1 4 14 4 -1.</_>
        <_>
          1 4 7 2 2.</_>
        <_>
          8 6 7 2 2.</_></rects>
      <tilted>0</tilted></_>
    <_>
      <rects>
        <_>
          3 5 12 2 -1.</_>
        <_>
          3 5 6 1 2.</_>
        <_>
          9 6 6 1 2.</_></rects>
      <tilted>0</tilted></_>
    <_>
      <rects>
        <_>
          8 4 8 4 -1.</_>
        <_>
          8 6 8 2 2.</_></rects>
      <tilted>0</tilted></_>
    <_>
      <rects>
        <_>
          8 5 8 2 -1.</_>
        <_>
          8 6 8 1 2.</_></rects>
      <tilted>0</tilted></_>
    <_>
      <rects>
        <_>
          9 0 8 6 -1.</_>
        <_>
          9 3 8 3 2.</_></rects>
      <tilted>0</tilted></_>
    <_>
      <rects>
        <_>
          9 5 6 2 -1.</_>
        <_>
          9 6 6 1 2.</_></rects>
      <tilted>0</tilted></_>
    <_>
      <rects>
        <_>
          10 10 4 14 -1.</_>
        <_>
          10 10 2 7 2.</_>
        <_>
          12 17 2 7 2.</_></rects>
      <tilted>0</tilted></_>
    <_>
      <rects>
        <_>
          11 3 1 18 -1.</_>
        <_>
          11 9 1 6 2.</_></rects>
      <tilted>0</tilted></_>
    <_>
      <rects>
        <_>
          11 10 2 4 -1.</_>
        <_>
          12 10 1 4 2.</_></rects>
      <tilted>0</tilted></_>
    <_>
      <rects>
        <_>
          11 11 2 3 -1.</_>
        <_>
          12 11 1 3 2.</_></rects>
      <tilted>0</tilted></_>
    <_>
      <rects>
        <_>
          11 14 4 10 -1.</_>
        <_>
          11 19 4 5 2.</_></rects>
      <tilted>0</tilted></_>
    <_>
      <rects>
        <_>
          12 11 2 2 -1.</_>
        <_>
          13 11 1 2 2.</_></rects>
      <tilted>0</tilted></_>
    <_>
      <rects>
        <_>
          12 13 2 1 -1.</_>
        <_>
          13 13 1 1 2.</_></rects>
      <tilted>0</tilted></_>
    <_>
      <rects>
        <_>
          13 1 1 16 -1.</_>
        <_>
          13 9 1 8 2.</_></rects>
      <tilted>0</tilted></_>
    <_>
      <rects>
        <_>
          13 10 4 4 -1.</_>
        <_>
          15 10 2 4 2.</_></rects>
      <tilted>0</tilted></_>
    <_>
      <rects>
        <_>
          14 10 2 4 -1.</_>
        <_>
          15 10 1 4 2.</_></rects>
      <tilted>0</tilted></_>
    <_>
      <rects>
        <_>
          14 11 2 3 -1.</_>
        <_>
          15 11 1 3 2.</_></rects>
      <tilted>0</tilted></_></features></cascade>
</opencv_storage>
