<?xml version="1.0"?>
<opencv_storage>
<cascade>
  <stageType>BOOST</stageType>
  <featureType>HAAR</featureType>
  <height>24</height>
  <width>24</width>
  <stageParams>
    <boostType>GAB</boostType>
    <minHitRate>9.9500000476837158e-01</minHitRate>
    <maxFalseAlarm>5.0000000000000000e-01</maxFalseAlarm>
    <weightTrimRate>9.4999999999999996e-01</weightTrimRate>
    <maxDepth>1</maxDepth>
    <maxWeakCount>100</maxWeakCount></stageParams>
  <featureParams>
    <maxCatCount>0</maxCatCount>
    <featSize>1</featSize>
    <mode>BASIC</mode></featureParams>
  <stageNum>9</stageNum>
  <stages>
    <!-- stage 0 -->
    <_>
      <maxWeakCount>2</maxWeakCount>
      <stageThreshold>-1.0893622040748596e-01</stageThreshold>
      <weakClassifiers>
        <_>
          <internalNodes>
            0 -1 12 2.1769856102764606e-03</internalNodes>
          <leafValues>
            -9.6008402109146118e-01 8.7213742733001709e-01</leafValues></_>
        <_>
          <internalNodes>
            0 -1 19 5.0837234593927860e-03</internalNodes>
          <leafValues>
            -8.4862166643142700e-01 8.5114783048629761e-01</leafValues></_></weakClassifiers></_>
    <!-- stage 1 -->
    <_>
      <maxWeakCount>1</maxWeakCount>
      <stageThreshold>6.9152539968490601e-01</stageThreshold>
      <weakClassifiers>
        <_>
          <internalNodes>
            0 -1 37 -2.8725260496139526e-01</internalNodes>
          <leafValues>
            -9.9512195587158203e-01 6.9152539968490601e-01</leafValues></_></weakClassifiers></_>
    <!-- stage 2 -->
    <_>
      <maxWeakCount>4</maxWeakCount>
      <stageThreshold>-8.9598900079727173e-01</stageThreshold>
      <weakClassifiers>
        <_>
          <internalNodes>
            0 -1 34 -1.1329557746648788e-03</internalNodes>
          <leafValues>
            6.8313455581665039e-01 -9.7094428539276123e-01</leafValues></_>
        <_>
          <internalNodes>
            0 -1 2 1.0920725762844086e-02</internalNodes>
          <leafValues>
            -7.5292539596557617e-01 5.0876539945602417e-01</leafValues></_>
        <_>
          <internalNodes>
            0 -1 7 1.6129687428474426e-03</internalNodes>
          <leafValues>
            -8.5909014940261841e-01 3.6916688084602356e-01</leafValues></_>
        <_>
          <internalNodes>
            0 -1 39 -4.5459839748218656e-04</internalNodes>
          <leafValues>
            4.5871382951736450e-01 -6.7583781480789185e-01</leafValues></_></weakClassifiers></_>
    <!-- stage 3 -->
    <_>
      <maxWeakCount>5</maxWeakCount>
      <stageThreshold>-1.7133604288101196e+00</stageThreshold>
      <weakClassifiers>
        <_>
          <internalNodes>
            0 -1 9 -3.4232102334499359e-02</internalNodes>
          <leafValues>
            7.0594370365142822e-01 -6.5033620595932007e-01</leafValues></_>
        <_>
          <internalNodes>
            0 -1 11 1.3898157048970461e-03</internalNodes>
          <leafValues>
            -8.4167611598968506e-01 4.8892045021057129e-01</leafValues></_>
        <_>
          <internalNodes>
            0 -1 18 7.4510183185338974e-03</internalNodes>
          <leafValues>
            -9.8473227024078369e-01 2.7301058173179626e-01</leafValues></_>
        <_>
          <internalNodes>
            0 -1 22 4.6399462735280395e-04</internalNodes>
          <leafValues>
            -9.4117915630340576e-01 3.0815717577934265e-01</leafValues></_>
        <_>
          <internalNodes>
            0 -1 35 -6.4828043105080724e-04</internalNodes>
          <leafValues>
            2.3684822022914886e-01 -9.0945941209793091e-01</leafValues></_></weakClassifiers></_>
    <!-- stage 4 -->
    <_>
      <maxWeakCount>7</maxWeakCount>
      <stageThreshold>-1.3717210292816162e+00</stageThreshold>
      <weakClassifiers>
        <_>
          <internalNodes>
            0 -1 35 -8.5117662092670798e-04</internalNodes>
          <leafValues>
            3.5724332928657532e-01 -8.7889271974563599e-01</leafValues></_>
        <_>
          <internalNodes>
            0 -1 17 1.3935131020843983e-02</internalNodes>
          <leafValues>
            -5.1564311981201172e-01 5.8837789297103882e-01</leafValues></_>
        <_>
          <internalNodes>
            0 -1 29 2.2187485592439771e-04</internalNodes>
          <leafValues>
            -1. 2.6896035671234131e-01</leafValues></_>
        <_>
          <internalNodes>
            0 -1 12 2.0301081240177155e-03</internalNodes>
          <leafValues>
            -8.9049696922302246e-01 2.3438943922519684e-01</leafValues></_>
        <_>
          <internalNodes>
            0 -1 32 -3.4749077167361975e-04</internalNodes>
          <leafValues>
            1.9708223640918732e-01 -9.5447397232055664e-01</leafValues></_>
        <_>
          <internalNodes>
            0 -1 25 3.2865547109395266e-04</internalNodes>
          <leafValues>
            -8.0227643251419067e-01 2.6799672842025757e-01</leafValues></_>
        <_>
          <internalNodes>
            0 -1 23 4.8656154831405729e-05</internalNodes>
          <leafValues>
            1.7927248775959015e-01 -8.2789647579193115e-01</leafValues></_></weakClassifiers></_>
    <!-- stage 5 -->
    <_>
      <maxWeakCount>7</maxWeakCount>
      <stageThreshold>-1.4424235820770264e+00</stageThreshold>
      <weakClassifiers>
        <_>
          <internalNodes>
            0 -1 6 -1.0735756717622280e-02</internalNodes>
          <leafValues>
            5.7563853263854980e-01 -5.9674131870269775e-01</leafValues></_>
        <_>
          <internalNodes>
            0 -1 21 8.5716985631734133e-04</internalNodes>
          <leafValues>
            -9.3422067165374756e-01 3.0416911840438843e-01</leafValues></_>
        <_>
          <internalNodes>
            0 -1 14 4.8401014646515250e-04</internalNodes>
          <leafValues>
            -9.4314134120941162e-01 1.4500616490840912e-01</leafValues></_>
        <_>
          <internalNodes>
            0 -1 30 1.8927875498775393e-04</internalNodes>
          <leafValues>
            1.6561116278171539e-01 -9.5488089323043823e-01</leafValues></_>
        <_>
          <internalNodes>
            0 -1 13 4.9338806420564651e-03</internalNodes>
          <leafValues>
            -7.5153344869613647e-01 2.6611268520355225e-01</leafValues></_>
        <_>
          <internalNodes>
            0 -1 33 -4.1723229514900595e-05</internalNodes>
          <leafValues>
            2.6728370785713196e-01 -7.2639060020446777e-01</leafValues></_>
        <_>
          <internalNodes>
            0 -1 38 -4.8099213745445013e-04</internalNodes>
          <leafValues>
            2.3819901049137115e-01 -7.2056829929351807e-01</leafValues></_></weakClassifiers></_>
    <!-- stage 6 -->
    <_>
      <maxWeakCount>6</maxWeakCount>
      <stageThreshold>-8.3024156093597412e-01</stageThreshold>
      <weakClassifiers>
        <_>
          <internalNodes>
            0 -1 4 5.3470833227038383e-03</internalNodes>
          <leafValues>
            -6.4721846580505371e-01 3.7767219543457031e-01</leafValues></_>
        <_>
          <internalNodes>
            0 -1 24 -1.4613473787903786e-02</internalNodes>
          <leafValues>
            2.1784821152687073e-01 -8.6664807796478271e-01</leafValues></_>
        <_>
          <internalNodes>
            0 -1 36 3.1160903163254261e-03</internalNodes>
          <leafValues>
            -6.8959951400756836e-01 2.5666743516921997e-01</leafValues></_>
        <_>
          <internalNodes>
            0 -1 28 -1.3890353147871792e-04</internalNodes>
          <leafValues>
            2.0322489738464355e-01 -9.5188158750534058e-01</leafValues></_>
        <_>
          <internalNodes>
            0 -1 31 2.3922194668557495e-04</internalNodes>
          <leafValues>
            -9.9331605434417725e-01 1.1790421605110168e-01</leafValues></_>
        <_>
          <internalNodes>
            0 -1 12 1.8775754142552614e-03</internalNodes>
          <leafValues>
            -8.9450705051422119e-01 1.7643859982490540e-01</leafValues></_></weakClassifiers></_>
    <!-- stage 7 -->
    <_>
      <maxWeakCount>9</maxWeakCount>
      <stageThreshold>-1.4522957801818848e+00</stageThreshold>
      <weakClassifiers>
        <_>
          <internalNodes>
            0 -1 26 -6.4269709400832653e-04</internalNodes>
          <leafValues>
            2.6533332467079163e-01 -7.9600000381469727e-01</leafValues></_>
        <_>
          <internalNodes>
            0 -1 32 -3.9344708784483373e-04</internalNodes>
          <leafValues>
            1.4852011203765869e-01 -9.2805480957031250e-01</leafValues></_>
        <_>
          <internalNodes>
            0 -1 3 1.2934107799082994e-03</internalNodes>
          <leafValues>
            -8.5929977893829346e-01 1.6794613003730774e-01</leafValues></_>
        <_>
          <internalNodes>
            0 -1 23 -2.2338890630635433e-05</internalNodes>
          <leafValues>
            2.6275527477264404e-01 -7.6703369617462158e-01</leafValues></_>
        <_>
          <internalNodes>
            0 -1 0 6.7228637635707855e-02</internalNodes>
          <leafValues>
            -4.1812357306480408e-01 3.8538578152656555e-01</leafValues></_>
        <_>
          <internalNodes>
            0 -1 38 -2.8560808277688920e-04</internalNodes>
          <leafValues>
            2.5459674000740051e-01 -6.9768434762954712e-01</leafValues></_>
        <_>
          <internalNodes>
            0 -1 8 2.7268641861155629e-04</internalNodes>
          <leafValues>
            -8.8155817985534668e-01 1.1709837615489960e-01</leafValues></_>
        <_>
          <internalNodes>
            0 -1 40 -2.3575531668029726e-04</internalNodes>
          <leafValues>
            -8.2504302263259888e-01 1.3614077866077423e-01</leafValues></_>
        <_>
          <internalNodes>
            0 -1 16 1.6297809779644012e-02</internalNodes>
          <leafValues>
            -4.0449288487434387e-01 3.9314329624176025e-01</leafValues></_></weakClassifiers></_>
    <!-- stage 8 -->
    <_>
      <maxWeakCount>9</maxWeakCount>
      <stageThreshold>-1.4158148765563965e+00</stageThreshold>
      <weakClassifiers>
        <_>
          <internalNodes>
            0 -1 15 -1.3197017833590508e-02</internalNodes>
          <leafValues>
            5.6334233283996582e-01 -3.3227345347404480e-01</leafValues></_>
        <_>
          <internalNodes>
            0 -1 27 -7.9037167597562075e-04</internalNodes>
          <leafValues>
            2.0806285738945007e-01 -8.2631820440292358e-01</leafValues></_>
        <_>
          <internalNodes>
            0 -1 20 -7.0098042488098145e-03</internalNodes>
          <leafValues>
            -7.2252446413040161e-01 2.3912943899631500e-01</leafValues></_>
        <_>
          <internalNodes>
            0 -1 10 9.0458389604464173e-04</internalNodes>
          <leafValues>
            -5.9038668870925903e-01 2.9935213923454285e-01</leafValues></_>
        <_>
          <internalNodes>
            0 -1 31 4.7020288184285164e-04</internalNodes>
          <leafValues>
            -8.5502147674560547e-01 1.9251203536987305e-01</leafValues></_>
        <_>
          <internalNodes>
            0 -1 5 -7.2856590850278735e-04</internalNodes>
          <leafValues>
            3.6441665887832642e-01 -4.5832487940788269e-01</leafValues></_>
        <_>
          <internalNodes>
            0 -1 30 1.9435011199675500e-04</internalNodes>
          <leafValues>
            1.2240221351385117e-01 -9.5265328884124756e-01</leafValues></_>
        <_>
          <internalNodes>
            0 -1 23 1.4077284140512347e-04</internalNodes>
          <leafValues>
            1.0929019749164581e-01 -8.5347867012023926e-01</leafValues></_>
        <_>
          <internalNodes>
            0 -1 1 -1.0634644422680140e-03</internalNodes>
          <leafValues>
            -8.5010826587677002e-01 1.2815453112125397e-01</leafValues></_></weakClassifiers></_></stages>
  <features>
    <_>
      <rects>
        <_>
          2 4 12 18 -1.</_>
        <_>
          2 4 6 9 2.</_>
        <_>
          8 13 6 9 2.</_></rects>
      <tilted>0</tilted></_>
    <_>
      <rects>
        <_>
          6 13 8 2 -1.</_>
        <_>
          6 14 8 1 2.</_></rects>
      <tilted>0</tilted></_>
    <_>
      <rects>
        <_>
          7 7 8 6 -1.</_>
        <_>
          7 7 4 3 2.</_>
        <_>
          11 10 4 3 2.</_></rects>
      <tilted>0</tilted></_>
    <_>
      <rects>
        <_>
          8 12 8 1 -1.</_>
        <_>
          12 12 4 1 2.</_></rects>
      <tilted>0</tilted></_>
    <_>
      <rects>
        <_>
          8 12 5 4 -1.</_>
        <_>
          8 14 5 2 2.</_></rects>
      <tilted>0</tilted></_>
    <_>
      <rects>
        <_>
          9 10 2 2 -1.</_>
        <_>
          9 11 2 1 2.</_></rects>
      <tilted>0</tilted></_>
    <_>
      <rects>
        <_>
          9 11 8 6 -1.</_>
        <_>
          9 11 4 3 2.</_>
        <_>
          13 14 4 3 2.</_></rects>
      <tilted>0</tilted></_>
    <_>
      <rects>
        <_>
          9 12 4 2 -1.</_>
        <_>
          9 13 4 1 2.</_></rects>
      <tilted>0</tilted></_>
    <_>
      <rects>
        <_>
          9 12 6 2 -1.</_>
        <_>
          9 13 6 1 2.</_></rects>
      <tilted>0</tilted></_>
    <_>
      <rects>
        <_>
          9 15 3 3 -1.</_>
        <_>
          9 16 3 1 2.</_></rects>
      <tilted>0</tilted></_>
    <_>
      <rects>
        <_>
          10 11 2 1 -1.</_>
        <_>
          11 11 1 1 2.</_></rects>
      <tilted>0</tilted></_>
    <_>
      <rects>
        <_>
          10 11 2 2 -1.</_>
        <_>
          11 11 1 2 2.</_></rects>
      <tilted>0</tilted></_>
    <_>
      <rects>
        <_>
          10 11 4 1 -1.</_>
        <_>
          12 11 2 1 2.</_></rects>
      <tilted>0</tilted></_>
    <_>
      <rects>
        <_>
          10 11 4 4 -1.</_>
        <_>
          10 13 4 2 2.</_></rects>
      <tilted>0</tilted></_>
    <_>
      <rects>
        <_>
          10 12 2 1 -1.</_>
        <_>
          11 12 1 1 2.</_></rects>
      <tilted>0</tilted></_>
    <_>
      <rects>
        <_>
          10 13 4 6 -1.</_>
        <_>
          12 13 2 6 2.</_></rects>
      <tilted>0</tilted></_>
    <_>
      <rects>
        <_>
          11 4 4 8 -1.</_>
        <_>
          11 8 4 4 2.</_></rects>
      <tilted>0</tilted></_>
    <_>
      <rects>
        <_>
          11 6 4 6 -1.</_>
        <_>
          11 9 4 3 2.</_></rects>
      <tilted>0</tilted></_>
    <_>
      <rects>
        <_>
          11 9 3 6 -1.</_>
        <_>
          11 12 3 3 2.</_></rects>
      <tilted>0</tilted></_>
    <_>
      <rects>
        <_>
          11 10 2 4 -1.</_>
        <_>
          11 12 2 2 2.</_></rects>
      <tilted>0</tilted></_>
    <_>
      <rects>
        <_>
          11 10 4 4 -1.</_>
        <_>
          13 10 2 4 2.</_></rects>
      <tilted>0</tilted></_>
    <_>
      <rects>
        <_>
          11 10 4 2 -1.</_>
        <_>
          11 11 4 1 2.</_></rects>
      <tilted>0</tilted></_>
    <_>
      <rects>
        <_>
          11 11 2 1 -1.</_>
        <_>
          12 11 1 1 2.</_></rects>
      <tilted>0</tilted></_>
    <_>
      <rects>
        <_>
          11 11 2 2 -1.</_>
        <_>
          11 11 1 1 2.</_>
        <_>
          12 12 1 1 2.</_></rects>
      <tilted>0</tilted></_>
    <_>
      <rects>
        <_>
          11 11 3 2 -1.</_>
        <_>
          12 11 1 2 2.</_></rects>
      <tilted>0</tilted></_>
    <_>
      <rects>
        <_>
          11 12 1 2 -1.</_>
        <_>
          11 13 1 1 2.</_></rects>
      <tilted>0</tilted></_>
    <_>
      <rects>
        <_>
          11 12 4 2 -1.</_>
        <_>
          11 12 2 1 2.</_>
        <_>
          13 13 2 1 2.</_></rects>
      <tilted>0</tilted></_>
    <_>
      <rects>
        <_>
          12 7 2 9 -1.</_>
        <_>
          13 7 1 9 2.</_></rects>
      <tilted>0</tilted></_>
    <_>
      <rects>
        <_>
          12 10 2 4 -1.</_>
        <_>
          13 10 1 4 2.</_></rects>
      <tilted>0</tilted></_>
    <_>
      <rects>
        <_>
          12 11 1 2 -1.</_>
        <_>
          12 12 1 1 2.</_></rects>
      <tilted>0</tilted></_>
    <_>
      <rects>
        <_>
          12 11 2 2 -1.</_>
        <_>
          13 11 1 2 2.</_></rects>
      <tilted>0</tilted></_>
    <_>
      <rects>
        <_>
          12 11 2 2 -1.</_>
        <_>
          12 12 2 1 2.</_></rects>
      <tilted>0</tilted></_>
    <_>
      <rects>
        <_>
          12 12 2 1 -1.</_>
        <_>
          13 12 1 1 2.</_></rects>
      <tilted>0</tilted></_>
    <_>
      <rects>
        <_>
          12 12 2 2 -1.</_>
        <_>
          12 12 1 1 2.</_>
        <_>
          13 13 1 1 2.</_></rects>
      <tilted>0</tilted></_>
    <_>
      <rects>
        <_>
          12 12 2 2 -1.</_>
        <_>
          13 12 1 2 2.</_></rects>
      <tilted>0</tilted></_>
    <_>
      <rects>
        <_>
          12 13 2 1 -1.</_>
        <_>
          13 13 1 1 2.</_></rects>
      <tilted>0</tilted></_>
    <_>
      <rects>
        <_>
          13 6 1 8 -1.</_>
        <_>
          13 10 1 4 2.</_></rects>
      <tilted>0</tilted></_>
    <_>
      <rects>
        <_>
          13 6 2 15 -1.</_>
        <_>
          13 11 2 5 2.</_></rects>
      <tilted>0</tilted></_>
    <_>
      <rects>
        <_>
          13 11 2 2 -1.</_>
        <_>
          14 11 1 2 2.</_></rects>
      <tilted>0</tilted></_>
    <_>
      <rects>
        <_>
          13 12 2 1 -1.</_>
        <_>
          14 12 1 1 2.</_></rects>
      <tilted>0</tilted></_>
    <_>
      <rects>
        <_>
          14 10 1 2 -1.</_>
        <_>
          14 11 1 1 2.</_></rects>
      <tilted>0</tilted></_></features></cascade>
</opencv_storage>
